{"learner":{"attributes":{"scikit_learn":"{\"_estimator_type\": \"ranker\"}"},"feature_names":[],"feature_types":[],"gradient_booster":{"model":{"gbtree_model_param":{"num_parallel_tree":"1","num_trees":"100"},"iteration_indptr":[0,1,2,3,4,5,6,7,8,9,10,11,12,13,14,15,16,17,18,19,20,21,22,23,24,25,26,27,28,29,30,31,32,33,34,35,36,37,38,39,40,41,42,43,44,45,46,47,48,49,50,51,52,53,54,55,56,57,58,59,60,61,62,63,64,65,66,67,68,69,70,71,72,73,74,75,76,77,78,79,80,81,82,83,84,85,86,87,88,89,90,91,92,93,94,95,96,97,98,99,100],"tree_info":[0,0,0,0,0,0,0,0,0,0,0,0,0,0,0,0,0,0,0,0,0,0,0,0,0,0,0,0,0,0,0,0,0,0,0,0,0,0,0,0,0,0,0,0,0,0,0,0,0,0,0,0,0,0,0,0,0,0,0,0,0,0,0,0,0,0,0,0,0,0,0,0,0,0,0,0,0,0,0,0,0,0,0,0,0,0,0,0,0,0,0,0,0,0,0,0,0,0,0,0],"trees":[{"base_weights":[2.427557E-11,-1.6441225E-1,1.624449E-1,-2.9496223E-1,-5.393117E-2,1.3620998E-1,5.5139136E-1,-4.8903552E-1,-1.9799326E-1,-1.2179696E-1,5.3766817E-2,6.904985E-2,2.0109963E-1,4.626596E-1,6.195419E-1,6.0432695E-2,-5.228411E-1,-1.1490444E-1,-3.523251E-1,-1.3494475E-1,4.679459E-1,4.1944694E-2,4.74218E-1,-4.329921E-2,1.1029999E-1,1.300024E-1,2.4855979E-1,4.1819763E-1,5.13958E-1,5.336025E-1,6.8682545E-1,-3.7152037E-1,1.523843E-1,-6.5809065E-1,-3.5919976E-1,-9.429569E-2,-4.5263115E-1,-3.8558742E-1,-6.0738316E-3,-1.6234364E-1,2.291767E-2,3.2128415E-1,5.33691E-1,1.146651E-1,-7.897673E-3,3.6185575E-1,5.721928E-1,-1.658873E-1,-6.143809E-3,7.233286E-2,2.2727917E-1,9.782741E-2,2.0212846E-1,2.0182283E-1,3.1646907E-1,4.7954094E-1,3.676771E-1,4.5136893E-1,5.5285406E-1,4.410973E-1,5.87928E-1,6.287592E-1,7.435237E-1,2.9203262E-2,-1.5306672E-1,-6.350503E-2,5.3770743E-2,-1.43918E-1,-2.1313833E-1,-1.1853985E-1,-5.4111745E-2,-4.7318283E-2,-8.345528E-4,-1.4902908E-1,-4.367397E-2,-1.556133E-1,-9.341514E-2,-4.5519937E-2,3.0172342E-2,-5.1904883E-2,3.7716664E-2,-4.830649E-3,4.514887E-2,1.0176883E-1,-4.0481339E-4,1.1889101E-1,1.7705315E-1,4.0051382E-2,-3.9853152E-2,-2.1208404E-2,2.6864272E-2,6.060135E-2,1.289455E-1,2.9856028E-2,1.745924E-1,-1.3430436E-1,-4.292674E-2,-2.2391673E-2,8.724116E-3,9.476298E-3,3.424048E-2,5.1030442E-2,1.13581926E-1,4.035027E-2,1.2869929E-2,6.600097E-2,-2.6652836E-3,3.4097545E-2,7.239764E-2,1.4767331E-1,8.512167E-2,1.4488667E-1,-1.01771094E-1,1.722996E-1,1.0569896E-1,1.1586078E-1,1.5981671E-1,1.5153286E-1,1.816323E-1,6.308596E-2,1.3738771E-1,1.6149989E-1,1.9446169E-1,1.6728726E-1,2.0551239E-1,1.9333689E-1,2.312913E-1],"categories":[],"categories_nodes":[],"categories_segments":[],"categories_sizes":[],"default_left":[0,0,0,0,0,0,0,0,0,0,0,0,0,0,0,0,0,0,0,0,0,0,0,0,0,0,0,0,0,0,0,0,0,0,0,0,0,0,0,0,0,0,0,0,0,0,0,0,0,0,0,0,0,0,0,0,0,0,0,0,0,0,0,0,0,0,0,0,0,0,0,0,0,0,0,0,0,0,0,0,0,0,0,0,0,0,0,0,0,0,0,0,0,0,0,0,0,0,0,0,0,0,0,0,0,0,0,0,0,0,0,0,0,0,0,0,0,0,0,0,0,0,0,0,0,0,0],"id":0,"left_children":[1,3,5,7,9,11,13,15,17,19,21,23,25,27,29,31,33,35,37,39,41,43,45,47,49,51,53,55,57,59,61,63,65,67,69,71,73,75,77,79,81,83,85,87,89,91,93,95,97,99,101,103,105,107,109,111,113,115,117,119,121,123,125,-1,-1,-1,-1,-1,-1,-1,-1,-1,-1,-1,-1,-1,-1,-1,-1,-1,-1,-1,-1,-1,-1,-1,-1,-1,-1,-1,-1,-1,-1,-1,-1,-1,-1,-1,-1,-1,-1,-1,-1,-1,-1,-1,-1,-1,-1,-1,-1,-1,-1,-1,-1,-1,-1,-1,-1,-1,-1,-1,-1,-1,-1,-1,-1],"loss_changes":[5.1962285E3,1.3946194E3,9.985298E2,8.339829E2,3.828035E2,3.9953455E2,3.7106445E1,2.7431274E2,3.789613E2,2.4917969E2,1.0061577E2,2.0880441E2,1.5730579E2,5.9208374E0,1.98396E1,3.4084236E1,3.076338E2,1.3368797E2,1.1911926E2,1.3593939E2,6.586563E0,7.138101E1,5.8874283E0,5.5113655E1,1.4634793E2,4.330246E1,8.868176E1,4.3064423E0,2.7805786E0,7.4746704E0,5.973816E0,9.847097E0,6.9499855E0,7.07876E1,4.039026E1,1.0512654E2,1.4898361E1,9.3054565E1,1.4113046E1,8.235608E1,2.3145168E1,1.271019E0,3.509964E0,3.7362198E1,7.1514275E1,2.7442017E0,1.301506E0,1.80169E1,2.2408531E1,4.2374954E1,6.980136E1,2.6002571E1,2.171933E1,5.76651E1,6.542932E1,1.9810486E0,2.3269653E0,2.352211E0,1.6103516E0,2.1353226E0,2.5405884E0,3.513733E0,2.1798706E0,0E0,0E0,0E0,0E0,0E0,0E0,0E0,0E0,0E0,0E0,0E0,0E0,0E0,0E0,0E0,0E0,0E0,0E0,0E0,0E0,0E0,0E0,0E0,0E0,0E0,0E0,0E0,0E0,0E0,0E0,0E0,0E0,0E0,0E0,0E0,0E0,0E0,0E0,0E0,0E0,0E0,0E0,0E0,0E0,0E0,0E0,0E0,0E0,0E0,0E0,0E0,0E0,0E0,0E0,0E0,0E0,0E0,0E0,0E0,0E0,0E0,0E0,0E0,0E0],"parents":[2147483647,0,0,1,1,2,2,3,3,4,4,5,5,6,6,7,7,8,8,9,9,10,10,11,11,12,12,13,13,14,14,15,15,16,16,17,17,18,18,19,19,20,20,21,21,22,22,23,23,24,24,25,25,26,26,27,27,28,28,29,29,30,30,31,31,32,32,33,33,34,34,35,35,36,36,37,37,38,38,39,39,40,40,41,41,42,42,43,43,44,44,45,45,46,46,47,47,48,48,49,49,50,50,51,51,52,52,53,53,54,54,55,55,56,56,57,57,58,58,59,59,60,60,61,61,62,62],"right_children":[2,4,6,8,10,12,14,16,18,20,22,24,26,28,30,32,34,36,38,40,42,44,46,48,50,52,54,56,58,60,62,64,66,68,70,72,74,76,78,80,82,84,86,88,90,92,94,96,98,100,102,104,106,108,110,112,114,116,118,120,122,124,126,-1,-1,-1,-1,-1,-1,-1,-1,-1,-1,-1,-1,-1,-1,-1,-1,-1,-1,-1,-1,-1,-1,-1,-1,-1,-1,-1,-1,-1,-1,-1,-1,-1,-1,-1,-1,-1,-1,-1,-1,-1,-1,-1,-1,-1,-1,-1,-1,-1,-1,-1,-1,-1,-1,-1,-1,-1,-1,-1,-1,-1,-1,-1,-1],"split_conditions":[5.38462E-1,7.712E-3,1E0,-1.967363E1,-8.708006E0,1.551632E1,1.85E1,3.2E1,2.81628E-1,1E0,2E0,1.1299E-2,4E0,2E0,6E1,1.2E1,3.049E-3,2.226E3,5.574486E0,1.1316257E1,4E0,5.38462E-1,1.3E1,9.404237E0,7E0,2.3645739E1,3E0,-1.4596101E1,6E0,1.3624889E1,1.04E2,1E0,1.66E2,4.69E2,1.0959614E1,-3.83735E0,5.2632E-2,2.907E-3,1E0,2E0,3E0,1.5625E-2,1.53E1,1.04E2,7.197159E0,1.6703503E1,8.45E2,5.5556E-2,-1.39344E1,5.1903603E1,1.0687668E1,1.1E1,-4.102541E0,1E-6,3E0,-4.803309E0,4E0,1.8177198E1,3.1E1,1.3699E-2,2.1712866E1,3E0,3.56E2,2.9203262E-2,-1.5306672E-1,-6.350503E-2,5.3770743E-2,-1.43918E-1,-2.1313833E-1,-1.1853985E-1,-5.4111745E-2,-4.7318283E-2,-8.345528E-4,-1.4902908E-1,-4.367397E-2,-1.556133E-1,-9.341514E-2,-4.5519937E-2,3.0172342E-2,-5.1904883E-2,3.7716664E-2,-4.830649E-3,4.514887E-2,1.0176883E-1,-4.0481339E-4,1.1889101E-1,1.7705315E-1,4.0051382E-2,-3.9853152E-2,-2.1208404E-2,2.6864272E-2,6.060135E-2,1.289455E-1,2.9856028E-2,1.745924E-1,-1.3430436E-1,-4.292674E-2,-2.2391673E-2,8.724116E-3,9.476298E-3,3.424048E-2,5.1030442E-2,1.13581926E-1,4.035027E-2,1.2869929E-2,6.600097E-2,-2.6652836E-3,3.4097545E-2,7.239764E-2,1.4767331E-1,8.512167E-2,1.4488667E-1,-1.01771094E-1,1.722996E-1,1.0569896E-1,1.1586078E-1,1.5981671E-1,1.5153286E-1,1.816323E-1,6.308596E-2,1.3738771E-1,1.6149989E-1,1.9446169E-1,1.6728726E-1,2.0551239E-1,1.9333689E-1,2.312913E-1],"split_indices":[7,64,133,119,114,107,135,14,100,133,133,54,25,128,133,131,64,10,88,108,133,5,134,107,128,107,128,117,133,17,134,12,129,10,107,112,57,64,128,1,29,68,135,131,83,89,129,47,114,74,108,132,123,65,132,113,13,17,127,49,107,127,133,0,0,0,0,0,0,0,0,0,0,0,0,0,0,0,0,0,0,0,0,0,0,0,0,0,0,0,0,0,0,0,0,0,0,0,0,0,0,0,0,0,0,0,0,0,0,0,0,0,0,0,0,0,0,0,0,0,0,0,0,0,0,0,0],"split_type":[0,0,0,0,0,0,0,0,0,0,0,0,0,0,0,0,0,0,0,0,0,0,0,0,0,0,0,0,0,0,0,0,0,0,0,0,0,0,0,0,0,0,0,0,0,0,0,0,0,0,0,0,0,0,0,0,0,0,0,0,0,0,0,0,0,0,0,0,0,0,0,0,0,0,0,0,0,0,0,0,0,0,0,0,0,0,0,0,0,0,0,0,0,0,0,0,0,0,0,0,0,0,0,0,0,0,0,0,0,0,0,0,0,0,0,0,0,0,0,0,0,0,0,0,0,0,0],"sum_hessian":[1.945555E5,9.669223E4,9.7863266E4,4.431992E4,5.237231E4,9.168064E4,6.182623E3,1.4765088E4,2.9554832E4,3.2127234E4,2.0245076E4,4.5053156E4,4.662749E4,2.6891501E3,3.4934731E3,8.557138E2,1.3909374E4,1.9212822E4,1.0342011E4,3.142736E4,6.99874E2,1.9692469E4,5.526073E2,1.2099326E4,3.295383E4,1.866712E4,2.7960367E4,1.4454683E3,1.2436818E3,1.537982E3,1.9554911E3,1.496545E2,7.060593E2,7.613661E3,6.295713E3,1.810905E4,1.1037712E3,9.435485E3,9.065253E2,2.6779443E4,4.6479165E3,2.1845023E2,4.8142383E2,8.00777E3,1.1684699E4,2.595901E2,2.930172E2,2.8134265E3,9.285899E3,2.488024E4,8.07359E3,1.2910281E4,5.756838E3,1.6564332E4,1.1396037E4,6.489747E2,7.964936E2,4.8149527E2,7.621865E2,5.7240796E2,9.6557404E2,9.720638E2,9.8342725E2,3.423285E1,1.15421646E2,4.8025066E1,6.580343E2,1.7303993E3,5.8832617E3,5.2413257E3,1.0543871E3,1.0695114E4,7.413936E3,9.645226E2,1.3924864E2,3.3748728E3,6.0606123E3,3.8300198E2,5.235234E2,2.5823115E4,9.5632806E2,3.5599744E3,1.0879423E3,2.0689125E2,1.1558978E1,1.4260092E2,3.388229E2,7.441788E3,5.6598206E2,7.1057734E3,4.578926E3,7.8627266E1,1.8096283E2,6.167547E0,2.8684967E2,2.0918498E2,2.6042415E3,3.153212E3,6.1326875E3,1.2600282E4,1.2279958E4,5.8611343E3,2.2124556E3,7.7406455E3,5.1696357E3,5.3072236E3,4.496143E2,5.126523E3,1.1437809E4,1.7866921E3,9.609345E3,6.4668787E2,2.2867584E0,5.254461E1,7.43949E2,2.7053583E2,2.1095946E2,4.0504477E2,3.5714175E2,3.9887104E1,5.325209E2,5.351747E2,4.3039938E2,4.3419293E2,5.378709E2,2.1866455E2,7.647627E2],"tree_param":{"num_deleted":"0","num_feature":"136","num_nodes":"127","size_leaf_vector":"1"}},{"base_weights":[-3.3265732E-9,-1.0623129E-1,5.368496E-2,-1.8136771E-1,-4.658608E-2,4.017686E-2,3.359483E-1,-9.428437E-2,-2.4450998E-1,-5.553264E-2,2.6293197E-1,-7.303322E-4,9.744166E-2,2.3059654E-1,4.056786E-1,-1.04909815E-1,4.2978323E-1,-2.772338E-1,-5.7301737E-2,-1.03962585E-1,9.874703E-3,1.8925723E-1,3.6455393E-1,-3.1500164E-2,6.200063E-2,7.9849884E-2,2.56932E-1,1.5583174E-1,2.657483E-1,3.2681152E-1,4.6200842E-1,-9.21565E-2,-4.1572437E-1,2.9983446E-1,5.7190126E-1,-4.010633E-1,-2.3058246E-1,-1.0102534E-1,7.2259E-2,-1.8240462E-1,-4.8636097E-2,-2.2264149E-2,6.0721517E-2,1.9826294E-1,-3.7992075E-1,2.250536E-1,4.2294902E-1,-6.860266E-2,6.5126005E-3,1.5229088E-2,1.0990568E-1,4.43245E-2,1.4190088E-1,9.727473E-2,4.1218066E-1,1.9161469E-1,3.8750336E-2,2.2260855E-1,3.2951504E-1,2.968305E-1,4.2708418E-1,4.298609E-1,5.794907E-1,5.16628E-3,-3.6434744E-2,-1.4286563E-1,8.198505E-2,1.0457534E-1,-2.3057135E-2,-1.397736E-3,1.7905143E-1,-1.4895482E-1,-9.7500116E-2,-7.145642E-2,5.611808E-2,-2.4477731E-2,-9.571243E-2,1.152076E-2,1.1132579E-1,-5.725063E-2,2.7350863E-2,-2.5739847E-2,-6.8800285E-4,-3.6546618E-2,-2.606808E-3,-4.4601364E-3,3.289762E-2,5.3337745E-2,1.1486096E-1,-1.451808E-1,4.813244E-2,5.6919097E-3,8.7272525E-2,1.6567619E-1,1.1737504E-1,-1.5269993E-2,-4.375686E-2,-4.3905177E-3,2.385453E-2,-6.3520228E-3,2.9199405E-2,2.7772872E-2,7.9871066E-2,1.9753426E-2,-1.2996782E-2,5.0776124E-2,1.9992702E-2,3.5092566E-2,-1.694321E-2,6.135518E-2,1.759563E-1,1.3090187E-1,5.2475616E-2,-8.103231E-4,6.594204E-2,5.5604324E-2,9.429299E-2,8.095022E-2,1.1775665E-1,8.0551945E-2,1.1241226E-1,1.2910679E-1,-1.2582462E-1,1.191422E-1,1.535669E-1,1.15529746E-1,1.8394351E-1],"categories":[],"categories_nodes":[],"categories_segments":[],"categories_sizes":[],"default_left":[0,0,0,0,0,0,0,0,0,0,0,0,0,0,0,0,0,0,0,0,0,0,0,0,0,0,0,0,0,0,0,0,0,0,0,0,0,0,0,0,0,0,0,0,0,0,0,0,0,0,0,0,0,0,0,0,0,0,0,0,0,0,0,0,0,0,0,0,0,0,0,0,0,0,0,0,0,0,0,0,0,0,0,0,0,0,0,0,0,0,0,0,0,0,0,0,0,0,0,0,0,0,0,0,0,0,0,0,0,0,0,0,0,0,0,0,0,0,0,0,0,0,0,0,0,0,0],"id":1,"left_children":[1,3,5,7,9,11,13,15,17,19,21,23,25,27,29,31,33,35,37,39,41,43,45,47,49,51,53,55,57,59,61,63,65,67,69,71,73,75,77,79,81,83,85,87,89,91,93,95,97,99,101,103,105,107,109,111,113,115,117,119,121,123,125,-1,-1,-1,-1,-1,-1,-1,-1,-1,-1,-1,-1,-1,-1,-1,-1,-1,-1,-1,-1,-1,-1,-1,-1,-1,-1,-1,-1,-1,-1,-1,-1,-1,-1,-1,-1,-1,-1,-1,-1,-1,-1,-1,-1,-1,-1,-1,-1,-1,-1,-1,-1,-1,-1,-1,-1,-1,-1,-1,-1,-1,-1,-1,-1],"loss_changes":[1.6012625E3,4.2241077E2,7.111444E2,2.2933496E2,1.455238E2,4.1697086E2,6.2483093E1,9.7680984E1,1.4810876E2,1.6177954E2,1.098452E1,2.0041667E2,2.0808057E2,8.880722E0,2.2614136E1,6.8086044E1,6.2670135E0,1.188009E2,2.03944E1,1.2734305E2,3.5509014E1,4.473057E0,4.950676E0,9.824893E1,7.655792E1,1.4725446E2,1.8258282E2,4.5512543E0,6.2750397E0,6.302063E0,1.1031555E1,5.2899475E1,2.8352417E1,3.409626E0,2.3810425E0,4.0718933E1,4.7536987E1,1.137578E1,9.178869E0,2.80094E1,2.9637878E1,1.7992678E1,3.1130604E1,3.1260986E0,8.4801424E-1,2.504037E0,1.5689774E0,4.820436E1,5.312382E1,5.1678284E1,4.570543E1,8.013437E1,5.005484E1,1.1012878E1,1.351087E2,3.3278675E0,1.9216063E0,4.6556625E0,3.3880463E0,3.5379028E0,1.5374146E0,6.101471E0,3.9432678E0,0E0,0E0,0E0,0E0,0E0,0E0,0E0,0E0,0E0,0E0,0E0,0E0,0E0,0E0,0E0,0E0,0E0,0E0,0E0,0E0,0E0,0E0,0E0,0E0,0E0,0E0,0E0,0E0,0E0,0E0,0E0,0E0,0E0,0E0,0E0,0E0,0E0,0E0,0E0,0E0,0E0,0E0,0E0,0E0,0E0,0E0,0E0,0E0,0E0,0E0,0E0,0E0,0E0,0E0,0E0,0E0,0E0,0E0,0E0,0E0,0E0,0E0,0E0,0E0],"parents":[2147483647,0,0,1,1,2,2,3,3,4,4,5,5,6,6,7,7,8,8,9,9,10,10,11,11,12,12,13,13,14,14,15,15,16,16,17,17,18,18,19,19,20,20,21,21,22,22,23,23,24,24,25,25,26,26,27,27,28,28,29,29,30,30,31,31,32,32,33,33,34,34,35,35,36,36,37,37,38,38,39,39,40,40,41,41,42,42,43,43,44,44,45,45,46,46,47,47,48,48,49,49,50,50,51,51,52,52,53,53,54,54,55,55,56,56,57,57,58,58,59,59,60,60,61,61,62,62],"right_children":[2,4,6,8,10,12,14,16,18,20,22,24,26,28,30,32,34,36,38,40,42,44,46,48,50,52,54,56,58,60,62,64,66,68,70,72,74,76,78,80,82,84,86,88,90,92,94,96,98,100,102,104,106,108,110,112,114,116,118,120,122,124,126,-1,-1,-1,-1,-1,-1,-1,-1,-1,-1,-1,-1,-1,-1,-1,-1,-1,-1,-1,-1,-1,-1,-1,-1,-1,-1,-1,-1,-1,-1,-1,-1,-1,-1,-1,-1,-1,-1,-1,-1,-1,-1,-1,-1,-1,-1,-1,-1,-1,-1,-1,-1,-1,-1,-1,-1,-1,-1,-1,-1,-1,-1,-1,-1],"split_conditions":[6.645E-3,3.75E-1,2E0,7.6775E-2,1E0,2.6E1,1.23E1,3E0,9.78139E0,1.3918155E1,1.8E1,2.5343E4,2.3E1,8E0,5.3E1,1.873E3,3.1E1,4.372E-3,8.785929E0,1.4217896E1,3E0,-3.147438E0,9E0,1.3E1,1.0188203E1,2.0865232E1,6.4571E4,1.8E1,1.8E1,3.000324E1,6.08E2,1.1E1,2.3E1,5.894E-3,8.77135E0,-1.8595947E1,1E0,1.01E2,6.4571E4,1.2E-1,2E0,6.944E-3,-1.0050442E1,1.098E2,3.6486668E1,-2.3043058E1,2E0,2.2E1,2.2360886E1,9.899156E0,6.4389E4,6.3E1,5.2E1,-7.122139E0,1.875E-1,4E0,4E0,2.2360886E1,4.7543E4,7.658695E0,3.778403E1,2.6522875E1,7.305131E0,5.16628E-3,-3.6434744E-2,-1.4286563E-1,8.198505E-2,1.0457534E-1,-2.3057135E-2,-1.397736E-3,1.7905143E-1,-1.4895482E-1,-9.7500116E-2,-7.145642E-2,5.611808E-2,-2.4477731E-2,-9.571243E-2,1.152076E-2,1.1132579E-1,-5.725063E-2,2.7350863E-2,-2.5739847E-2,-6.8800285E-4,-3.6546618E-2,-2.606808E-3,-4.4601364E-3,3.289762E-2,5.3337745E-2,1.1486096E-1,-1.451808E-1,4.813244E-2,5.6919097E-3,8.7272525E-2,1.6567619E-1,1.1737504E-1,-1.5269993E-2,-4.375686E-2,-4.3905177E-3,2.385453E-2,-6.3520228E-3,2.9199405E-2,2.7772872E-2,7.9871066E-2,1.9753426E-2,-1.2996782E-2,5.0776124E-2,1.9992702E-2,3.5092566E-2,-1.694321E-2,6.135518E-2,1.759563E-1,1.3090187E-1,5.2475616E-2,-8.103231E-4,6.594204E-2,5.5604324E-2,9.429299E-2,8.095022E-2,1.1775665E-1,8.0551945E-2,1.1241226E-1,1.2910679E-1,-1.2582462E-1,1.191422E-1,1.535669E-1,1.15529746E-1,1.8394351E-1],"split_indices":[54,7,133,100,133,24,135,133,73,19,133,129,128,34,133,14,134,64,79,107,128,113,134,24,72,107,130,132,127,105,134,10,128,64,18,124,133,132,130,53,128,64,122,135,135,123,131,132,107,108,129,132,132,117,47,13,134,107,130,106,77,105,18,0,0,0,0,0,0,0,0,0,0,0,0,0,0,0,0,0,0,0,0,0,0,0,0,0,0,0,0,0,0,0,0,0,0,0,0,0,0,0,0,0,0,0,0,0,0,0,0,0,0,0,0,0,0,0,0,0,0,0,0,0,0,0,0],"split_type":[0,0,0,0,0,0,0,0,0,0,0,0,0,0,0,0,0,0,0,0,0,0,0,0,0,0,0,0,0,0,0,0,0,0,0,0,0,0,0,0,0,0,0,0,0,0,0,0,0,0,0,0,0,0,0,0,0,0,0,0,0,0,0,0,0,0,0,0,0,0,0,0,0,0,0,0,0,0,0,0,0,0,0,0,0,0,0,0,0,0,0,0,0,0,0,0,0,0,0,0,0,0,0,0,0,0,0,0,0,0,0,0,0,0,0,0,0,0,0,0,0,0,0,0,0,0,0],"sum_hessian":[2.8077234E5,9.425684E4,1.865155E5,4.1710777E4,5.2546062E4,1.7799828E5,8.517211E3,1.7532766E4,2.4178014E4,5.1070695E4,1.4753679E3,1.0382893E5,7.416936E4,3.3938835E3,5.1233276E3,1.7185137E4,3.476279E2,2.0580145E4,3.5978699E3,2.9343285E4,2.172741E4,8.569509E2,6.1841705E2,6.966058E4,3.4168344E4,6.680255E4,7.366816E3,1.0871155E3,2.306768E3,2.1374692E3,2.9858586E3,1.6509037E4,6.7610046E2,1.8321289E2,1.64415E2,5.629588E3,1.4950557E4,2.6902097E3,9.076602E2,1.2135395E4,1.720789E4,1.331312E4,8.414289E3,8.442447E2,1.2706226E1,1.8391513E2,4.3450192E2,3.5251965E4,3.4408617E4,1.7289379E4,1.6878967E4,4.248232E4,2.4320225E4,3.6326433E3,3.7341726E3,8.321527E2,2.549628E2,1.3786014E3,9.2816656E2,1.6485276E3,4.889416E2,2.348014E3,6.378447E2,3.487452E3,1.3021585E4,6.2181445E2,5.4285995E1,1.6228517E2,2.0927729E1,6.850004E0,1.5756499E2,2.4941306E3,3.1354573E3,1.4683587E4,2.6696915E2,2.471304E3,2.1890585E2,8.163033E2,9.135693E1,1.1772889E4,3.6250574E2,9.549257E3,7.658635E3,1.596484E3,1.1716637E4,3.3069917E3,5.107298E3,7.617407E2,8.250393E1,1.0742758E1,1.9634688E0,4.4850822E1,1.390643E2,8.2312805E1,3.5218912E2,2.8681293E4,6.570673E3,2.66805E4,7.728116E3,1.1978911E4,5.3104673E3,1.5196062E4,1.6829043E3,3.4107945E4,8.374377E3,1.783633E4,6.483894E3,3.2202651E3,4.1237823E2,1.7052078E3,2.0289648E3,5.154124E1,7.806115E2,2.0826686E2,4.669594E1,9.824331E2,3.9616837E2,4.7937778E2,4.4878882E2,1.2121237E3,4.364039E2,4.875488E2,1.3928005E0,1.6826624E3,6.6535156E2,9.596738E1,5.418773E2],"tree_param":{"num_deleted":"0","num_feature":"136","num_nodes":"127","size_leaf_vector":"1"}},{"base_weights":[1.4508695E-9,-7.5686045E-2,6.0508627E-2,-8.6036965E-2,2.2933115E-1,4.9465418E-2,2.607931E-1,-1.5525389E-1,-4.4337507E-2,1.4192717E-1,3.0710223E-1,8.5227555E-3,8.838637E-2,2.022739E-1,3.4433112E-1,-2.0443958E-1,-4.4684317E-2,-5.5786837E-2,1.2106171E-1,1.0412158E-1,2.162018E-1,2.2585332E-1,4.1992083E-1,-1.7869784E-2,7.589367E-2,1.9138397E-1,6.8675265E-2,1.3483554E-1,2.4158643E-1,2.6902467E-1,4.1200617E-1,-3.19771E-2,-2.236526E-1,-1.0280281E-1,4.8992347E-2,-7.499407E-2,2.3297844E-2,4.7238585E-2,1.8550912E-1,1.4238359E-1,4.1556666E-3,3.820734E-1,1.709885E-1,2.0650326E-1,4.6723965E-1,3.364757E-1,4.962113E-1,2.3542129E-1,-2.6254587E-2,3.3002123E-1,4.4223696E-2,1.802051E-1,3.6942494E-1,3.606949E-2,1.3794503E-1,1.5056749E-1,-7.701887E-2,1.8575847E-1,2.8220206E-1,2.0719576E-1,3.2850417E-1,4.4181007E-1,3.025664E-1,-2.383014E-3,-1.0676568E-1,-1.00587465E-1,-4.7866765E-2,-1.5500894E-1,-2.9026331E-2,-2.8003195E-2,1.998193E-2,-4.378231E-4,-2.934239E-2,1.8424559E-3,6.3899375E-2,2.9663103E-2,-7.0164874E-3,4.5228362E-2,1.12122044E-1,1.13599494E-1,3.8147155E-2,-5.9813005E-3,8.9441225E-2,1.1825339E-1,-8.696217E-2,3.926058E-2,9.391243E-2,6.9954194E-2,1.1625464E-2,2.2285623E-2,1.5063076E-1,1.13031745E-1,2.9866142E-2,1.13750644E-1,1.6875125E-1,8.696546E-2,1.3213142E-2,-1.7749317E-2,3.7281583E-3,5.411453E-2,1.20542936E-1,-2.7343687E-3,3.622776E-2,4.654617E-2,7.9210185E-2,1.7038263E-1,8.6750284E-2,1.7719021E-2,-5.2773794E-3,9.918558E-2,3.1625193E-2,2.7124388E-2,5.525576E-2,-1.0448184E-2,-1.6528876E-1,4.844082E-2,8.401397E-2,6.829116E-2,9.91276E-2,7.312712E-2,3.2694098E-2,-5.6526405E-3,1.0183198E-1,1.13053896E-1,1.4625353E-1,3.6165304E-2,1.0700692E-1],"categories":[],"categories_nodes":[],"categories_segments":[],"categories_sizes":[],"default_left":[0,0,0,0,0,0,0,0,0,0,0,0,0,0,0,0,0,0,0,0,0,0,0,0,0,0,0,0,0,0,0,0,0,0,0,0,0,0,0,0,0,0,0,0,0,0,0,0,0,0,0,0,0,0,0,0,0,0,0,0,0,0,0,0,0,0,0,0,0,0,0,0,0,0,0,0,0,0,0,0,0,0,0,0,0,0,0,0,0,0,0,0,0,0,0,0,0,0,0,0,0,0,0,0,0,0,0,0,0,0,0,0,0,0,0,0,0,0,0,0,0,0,0,0,0,0,0],"id":2,"left_children":[1,3,5,7,9,11,13,15,17,19,21,23,25,27,29,31,33,35,37,39,41,43,45,47,49,51,53,55,57,59,61,63,65,67,69,71,73,75,77,79,81,83,85,87,89,91,93,95,97,99,101,103,105,107,109,111,113,115,117,119,121,123,125,-1,-1,-1,-1,-1,-1,-1,-1,-1,-1,-1,-1,-1,-1,-1,-1,-1,-1,-1,-1,-1,-1,-1,-1,-1,-1,-1,-1,-1,-1,-1,-1,-1,-1,-1,-1,-1,-1,-1,-1,-1,-1,-1,-1,-1,-1,-1,-1,-1,-1,-1,-1,-1,-1,-1,-1,-1,-1,-1,-1,-1,-1,-1,-1],"loss_changes":[1.2417754E3,3.8035828E2,3.3326636E2,3.36287E2,2.6835083E1,2.2757178E2,3.842267E1,2.3821289E2,1.3770065E2,5.210621E0,1.9077026E1,1.23754234E2,1.4862311E2,1.2249664E1,1.6412476E1,1.0044824E2,7.3435745E1,1.0330043E2,2.2389107E1,4.7306404E0,4.642153E0,5.5928535E0,5.4001007E0,1.06214935E2,1.576568E2,2.333902E1,1.387945E2,5.705305E0,6.580948E0,5.5859756E0,5.429901E0,2.366305E1,1.9513782E2,2.0787712E1,1.2954767E1,9.179199E1,4.3250217E1,8.009742E0,1.6381035E1,3.170126E0,2.4384196E0,1.201231E0,2.7804413E0,5.045456E0,1.1902256E0,3.979618E0,3.3149414E0,1.669046E1,6.1623833E1,2.3246704E1,7.111872E1,2.3199982E1,1.0889778E1,5.1560326E1,1.23230774E2,3.1999092E0,2.3554099E0,2.7829514E0,4.3756256E0,2.690094E0,2.9764404E0,3.7901306E0,3.5849228E0,0E0,0E0,0E0,0E0,0E0,0E0,0E0,0E0,0E0,0E0,0E0,0E0,0E0,0E0,0E0,0E0,0E0,0E0,0E0,0E0,0E0,0E0,0E0,0E0,0E0,0E0,0E0,0E0,0E0,0E0,0E0,0E0,0E0,0E0,0E0,0E0,0E0,0E0,0E0,0E0,0E0,0E0,0E0,0E0,0E0,0E0,0E0,0E0,0E0,0E0,0E0,0E0,0E0,0E0,0E0,0E0,0E0,0E0,0E0,0E0,0E0,0E0,0E0,0E0],"parents":[2147483647,0,0,1,1,2,2,3,3,4,4,5,5,6,6,7,7,8,8,9,9,10,10,11,11,12,12,13,13,14,14,15,15,16,16,17,17,18,18,19,19,20,20,21,21,22,22,23,23,24,24,25,25,26,26,27,27,28,28,29,29,30,30,31,31,32,32,33,33,34,34,35,35,36,36,37,37,38,38,39,39,40,40,41,41,42,42,43,43,44,44,45,45,46,46,47,47,48,48,49,49,50,50,51,51,52,52,53,53,54,54,55,55,56,56,57,57,58,58,59,59,60,60,61,61,62,62],"right_children":[2,4,6,8,10,12,14,16,18,20,22,24,26,28,30,32,34,36,38,40,42,44,46,48,50,52,54,56,58,60,62,64,66,68,70,72,74,76,78,80,82,84,86,88,90,92,94,96,98,100,102,104,106,108,110,112,114,116,118,120,122,124,126,-1,-1,-1,-1,-1,-1,-1,-1,-1,-1,-1,-1,-1,-1,-1,-1,-1,-1,-1,-1,-1,-1,-1,-1,-1,-1,-1,-1,-1,-1,-1,-1,-1,-1,-1,-1,-1,-1,-1,-1,-1,-1,-1,-1,-1,-1,-1,-1,-1,-1,-1,-1,-1,-1,-1,-1,-1,-1,-1,-1,-1,-1,-1,-1],"split_conditions":[6.25E-2,1E0,1E0,1.145E-2,9E0,2E0,1.1E1,-3.904211E0,7.457837E0,2E0,1.02E2,2E1,2.9E1,1.6E1,8.8E1,3.2E1,3E0,1.3647474E1,-7.22294E0,1.9E1,5.747E-3,1.689346E1,2.42E2,4E0,5E0,2.7121948E1,1.5389168E2,6.1E1,5E0,4E-6,2.2E1,4E0,4.673E-3,-1.5282391E1,4E0,3.37657E-1,5.403E4,1.2E1,6.4571E4,4E0,4.0314926E1,9.2E1,3.52941E-1,3.5E1,1.195E3,5.6E1,8.33E2,-7.603144E0,1.6955172E1,1.1156222E1,1.614515E1,1.1852571E1,5E0,1.1E1,2E0,4E0,3.1081099E1,2.583782E1,1.53846E-1,1.5E1,5.901018E0,1.8268932E1,3.4384E-2,-2.383014E-3,-1.0676568E-1,-1.00587465E-1,-4.7866765E-2,-1.5500894E-1,-2.9026331E-2,-2.8003195E-2,1.998193E-2,-4.378231E-4,-2.934239E-2,1.8424559E-3,6.3899375E-2,2.9663103E-2,-7.0164874E-3,4.5228362E-2,1.12122044E-1,1.13599494E-1,3.8147155E-2,-5.9813005E-3,8.9441225E-2,1.1825339E-1,-8.696217E-2,3.926058E-2,9.391243E-2,6.9954194E-2,1.1625464E-2,2.2285623E-2,1.5063076E-1,1.13031745E-1,2.9866142E-2,1.13750644E-1,1.6875125E-1,8.696546E-2,1.3213142E-2,-1.7749317E-2,3.7281583E-3,5.411453E-2,1.20542936E-1,-2.7343687E-3,3.622776E-2,4.654617E-2,7.9210185E-2,1.7038263E-1,8.6750284E-2,1.7719021E-2,-5.2773794E-3,9.918558E-2,3.1625193E-2,2.7124388E-2,5.525576E-2,-1.0448184E-2,-1.6528876E-1,4.844082E-2,8.401397E-2,6.829116E-2,9.91276E-2,7.312712E-2,3.2694098E-2,-5.6526405E-3,1.0183198E-1,1.13053896E-1,1.4625353E-1,3.6165304E-2,1.0700692E-1],"split_indices":[52,133,133,64,134,128,134,112,86,128,133,127,126,24,133,14,128,108,121,132,64,108,134,13,13,107,74,131,127,65,131,12,64,110,12,100,129,132,130,13,135,126,46,131,129,131,133,118,72,16,18,108,13,132,132,133,107,107,48,131,82,109,45,0,0,0,0,0,0,0,0,0,0,0,0,0,0,0,0,0,0,0,0,0,0,0,0,0,0,0,0,0,0,0,0,0,0,0,0,0,0,0,0,0,0,0,0,0,0,0,0,0,0,0,0,0,0,0,0,0,0,0,0,0,0,0,0],"split_type":[0,0,0,0,0,0,0,0,0,0,0,0,0,0,0,0,0,0,0,0,0,0,0,0,0,0,0,0,0,0,0,0,0,0,0,0,0,0,0,0,0,0,0,0,0,0,0,0,0,0,0,0,0,0,0,0,0,0,0,0,0,0,0,0,0,0,0,0,0,0,0,0,0,0,0,0,0,0,0,0,0,0,0,0,0,0,0,0,0,0,0,0,0,0,0,0,0,0,0,0,0,0,0,0,0,0,0,0,0,0,0,0,0,0,0,0,0,0,0,0,0,0,0,0,0,0,0],"sum_hessian":[2.711482E5,1.2046572E5,1.5068247E5,1.1651252E5,3.9531963E3,1.4280953E5,7.872933E3,4.380233E4,7.2710195E4,1.8626544E3,2.0905417E3,6.959779E4,7.321175E4,4.631761E3,3.2411719E3,3.031581E4,1.3486516E4,6.800349E4,4.7067007E3,1.2359572E3,6.2669714E2,1.2170541E3,8.734878E2,5.000793E4,1.9589857E4,1.1758851E4,6.1452895E4,1.7073429E3,2.9244182E3,1.5364446E3,1.7047274E3,3.03904E3,2.7276771E4,8.3228125E3,5.163703E3,5.4714965E4,1.3288531E4,2.1945845E3,2.5121162E3,8.935328E2,3.4242444E2,1.3263943E2,4.940577E2,1.1284504E3,8.860362E1,4.1976587E2,4.5372192E2,1.6015217E3,4.8406406E4,2.1697595E3,1.7420098E4,1.1066046E4,6.9280444E2,4.1785625E4,1.966727E4,1.5895918E3,1.1775107E2,1.2339177E3,1.6905005E3,7.555424E2,7.809021E2,1.3374584E3,3.6726913E2,2.8300757E3,2.0896452E2,9.947216E3,1.7329557E4,1.1865652E2,8.204156E3,5.681646E2,4.5955386E3,1.2955935E4,4.175903E4,1.218735E4,1.1011819E3,1.2674766E3,9.271079E2,2.122161E3,3.8995523E2,5.26499E1,8.408829E2,3.1734827E2,2.5076162E1,1.3069841E2,1.941037E0,3.8674957E2,1.07308136E2,9.732805E2,1.5516986E2,7.47544E0,8.112818E1,3.5824384E2,6.1522038E1,1.6649266E2,2.8722928E2,1.2463204E3,3.5520132E2,2.615427E4,2.2252139E4,7.045904E2,1.4651692E3,1.0266303E4,7.153796E3,8.522154E3,2.5438914E3,1.977044E2,4.951E2,2.9251225E4,1.2534402E4,2.8393865E3,1.6827883E4,5.71215E2,1.01837683E3,1.0911121E2,8.639857E0,9.8332166E2,2.5059601E2,7.957856E2,8.9471497E2,5.4950415E2,2.0603828E2,2.3813179E1,7.570889E2,5.561504E2,7.813079E2,8.491829E1,2.8235083E2],"tree_param":{"num_deleted":"0","num_feature":"136","num_nodes":"127","size_leaf_vector":"1"}},{"base_weights":[4.763817E-10,-8.409285E-2,4.1468248E-2,-1.3436669E-1,-2.1702211E-2,3.387609E-2,2.4002679E-1,-1.793649E-1,-5.5187684E-2,-4.8312776E-2,4.6578985E-2,2.3294436E-2,1.5109672E-1,1.5576467E-1,2.9263508E-1,4.6261963E-2,-2.1490455E-1,-6.863974E-2,9.175435E-2,-3.7727017E-2,-2.7348116E-1,-4.8069954E-3,9.2555605E-2,1.05402485E-1,1.0130226E-2,3.7260336E-1,1.218384E-1,1.2778172E-1,2.2822541E-1,2.6587448E-1,3.7878323E-1,-6.202559E-2,1.225597E-1,-2.298011E-1,1.7328355E-1,-1.6320689E-2,-9.516796E-2,1.2602869E-1,-1.2545659E-1,-8.6096056E-2,2.1542625E-3,-3.669662E-1,-1.0249466E-1,-8.666608E-2,4.5360897E-2,7.416655E-2,1.9974838E-1,3.9335094E-2,2.6510823E-1,-1.8277341E-2,5.048923E-2,1.2707683E-1,4.819523E-1,1.3729075E-1,-7.4681477E-3,9.126597E-2,1.8526539E-1,-2.3840094E-1,2.34874E-1,2.284096E-1,3.2713515E-1,2.822468E-1,4.401121E-1,-1.9373772E-1,-1.5465365E-2,2.296613E-2,7.826637E-2,-1.1101534E-1,-5.5822525E-2,1.8034106E-2,8.240172E-2,-1.6867135E-2,1.1024756E-2,-3.962613E-2,-8.3008865E-3,4.316628E-4,5.163347E-2,-4.83973E-2,8.004237E-2,-3.913878E-2,-4.7807987E-3,-8.902686E-4,9.65625E-2,-1.15655445E-1,2.7347298E-2,-2.3807948E-2,-1.8451084E-1,-5.40505E-2,-1.10331755E-2,4.736541E-3,5.4300014E-2,1.7355483E-2,7.127981E-2,4.6236016E-2,1.3727212E-1,-2.79204E-2,1.779942E-2,5.1738217E-2,9.5323585E-2,-2.4908118E-2,2.8258688E-3,2.3395538E-2,-1.3088557E-3,7.3342836E-3,7.416799E-2,1.0755195E-1,1.7661737E-1,3.126835E-2,5.730116E-2,-6.73042E-2,1.043159E-2,3.9842464E-2,7.5499723E-3,3.4379013E-2,7.1708865E-2,1.03190556E-1,-1.1212543E-1,7.431476E-2,1.1416096E-2,6.135902E-2,9.443461E-2,8.266817E-2,1.0968654E-1,4.3616135E-2,1.0076739E-1,6.847222E-2,1.3864945E-1],"categories":[],"categories_nodes":[],"categories_segments":[],"categories_sizes":[],"default_left":[0,0,0,0,0,0,0,0,0,0,0,0,0,0,0,0,0,0,0,0,0,0,0,0,0,0,0,0,0,0,0,0,0,0,0,0,0,0,0,0,0,0,0,0,0,0,0,0,0,0,0,0,0,0,0,0,0,0,0,0,0,0,0,0,0,0,0,0,0,0,0,0,0,0,0,0,0,0,0,0,0,0,0,0,0,0,0,0,0,0,0,0,0,0,0,0,0,0,0,0,0,0,0,0,0,0,0,0,0,0,0,0,0,0,0,0,0,0,0,0,0,0,0,0,0,0,0],"id":3,"left_children":[1,3,5,7,9,11,13,15,17,19,21,23,25,27,29,31,33,35,37,39,41,43,45,47,49,51,53,55,57,59,61,63,65,67,69,71,73,75,77,79,81,83,85,87,89,91,93,95,97,99,101,103,105,107,109,111,113,115,117,119,121,123,125,-1,-1,-1,-1,-1,-1,-1,-1,-1,-1,-1,-1,-1,-1,-1,-1,-1,-1,-1,-1,-1,-1,-1,-1,-1,-1,-1,-1,-1,-1,-1,-1,-1,-1,-1,-1,-1,-1,-1,-1,-1,-1,-1,-1,-1,-1,-1,-1,-1,-1,-1,-1,-1,-1,-1,-1,-1,-1,-1,-1,-1,-1,-1,-1],"loss_changes":[9.2404675E2,2.744964E2,2.6752454E2,1.7265967E2,7.096057E1,2.1202173E2,2.8926453E1,2.4779572E2,3.4722664E1,6.697163E1,2.587516E1,1.6946362E2,9.167697E1,5.068878E0,9.172607E0,3.475667E1,1.5441455E2,2.2331123E1,1.0985056E1,5.177657E1,2.0129318E1,2.124671E1,1.137915E1,2.2856653E2,1.549168E2,4.4259537E1,2.4982956E1,3.7951107E0,2.225132E0,6.976944E0,5.5062256E0,1.0600817E1,1.5684307E1,1.5759961E2,1.131036E1,1.1468957E1,2.6602486E1,7.309246E0,2.8753996E0,3.775466E1,2.409283E1,6.9643707E0,5.255679E0,9.163666E0,1.2864334E1,1.3146183E1,9.87986E0,4.0580112E1,3.085907E1,1.4221976E2,8.4186584E1,6.283002E0,1.4838196E1,1.9814072E1,1.2243018E1,3.051629E0,2.649353E0,9.4189245E-1,1.7342186E0,3.8746796E0,2.2089767E0,2.6841087E0,2.603386E0,0E0,0E0,0E0,0E0,0E0,0E0,0E0,0E0,0E0,0E0,0E0,0E0,0E0,0E0,0E0,0E0,0E0,0E0,0E0,0E0,0E0,0E0,0E0,0E0,0E0,0E0,0E0,0E0,0E0,0E0,0E0,0E0,0E0,0E0,0E0,0E0,0E0,0E0,0E0,0E0,0E0,0E0,0E0,0E0,0E0,0E0,0E0,0E0,0E0,0E0,0E0,0E0,0E0,0E0,0E0,0E0,0E0,0E0,0E0,0E0,0E0,0E0,0E0,0E0],"parents":[2147483647,0,0,1,1,2,2,3,3,4,4,5,5,6,6,7,7,8,8,9,9,10,10,11,11,12,12,13,13,14,14,15,15,16,16,17,17,18,18,19,19,20,20,21,21,22,22,23,23,24,24,25,25,26,26,27,27,28,28,29,29,30,30,31,31,32,32,33,33,34,34,35,35,36,36,37,37,38,38,39,39,40,40,41,41,42,42,43,43,44,44,45,45,46,46,47,47,48,48,49,49,50,50,51,51,52,52,53,53,54,54,55,55,56,56,57,57,58,58,59,59,60,60,61,61,62,62],"right_children":[2,4,6,8,10,12,14,16,18,20,22,24,26,28,30,32,34,36,38,40,42,44,46,48,50,52,54,56,58,60,62,64,66,68,70,72,74,76,78,80,82,84,86,88,90,92,94,96,98,100,102,104,106,108,110,112,114,116,118,120,122,124,126,-1,-1,-1,-1,-1,-1,-1,-1,-1,-1,-1,-1,-1,-1,-1,-1,-1,-1,-1,-1,-1,-1,-1,-1,-1,-1,-1,-1,-1,-1,-1,-1,-1,-1,-1,-1,-1,-1,-1,-1,-1,-1,-1,-1,-1,-1,-1,-1,-1,-1,-1,-1,-1,-1,-1,-1,-1,-1,-1,-1,-1,-1,-1,-1],"split_conditions":[3E0,-1.0449263E1,3E0,1.3157986E1,6.528112E0,1.5628143E1,1.1866667E1,3.2E1,5.2171E4,6.819239E0,4.573E4,5E0,2E0,2.1712866E1,2.42E2,7.418E3,1E0,8.75E-1,1.65E1,1E0,1.6461E-2,1.5338214E1,5.9428E4,2E0,1.33333E-1,6.4571E4,1.18E2,2E0,5.291E-3,1.5472005E1,4.3E2,-4.2330566E1,1.308957E1,5.747E-3,9E0,1.902944E1,2E0,7.75445E-1,8.80403E-1,7.1429E-2,8E0,3E0,9.1E1,2.2393E4,1.33333E-1,1.7E1,1.5496036E1,1.6461E-2,1.1154483E1,1.1604855E1,1.7E1,2.8E1,1.8962112E1,3E0,2.5E-1,1.1E1,7.6923E-2,1.001E-3,7.3E1,1.97917E-1,2E0,4.3485508E1,3.3915E4,-1.9373772E-1,-1.5465365E-2,2.296613E-2,7.826637E-2,-1.1101534E-1,-5.5822525E-2,1.8034106E-2,8.240172E-2,-1.6867135E-2,1.1024756E-2,-3.962613E-2,-8.3008865E-3,4.316628E-4,5.163347E-2,-4.83973E-2,8.004237E-2,-3.913878E-2,-4.7807987E-3,-8.902686E-4,9.65625E-2,-1.15655445E-1,2.7347298E-2,-2.3807948E-2,-1.8451084E-1,-5.40505E-2,-1.10331755E-2,4.736541E-3,5.4300014E-2,1.7355483E-2,7.127981E-2,4.6236016E-2,1.3727212E-1,-2.79204E-2,1.779942E-2,5.1738217E-2,9.5323585E-2,-2.4908118E-2,2.8258688E-3,2.3395538E-2,-1.3088557E-3,7.3342836E-3,7.416799E-2,1.0755195E-1,1.7661737E-1,3.126835E-2,5.730116E-2,-6.73042E-2,1.043159E-2,3.9842464E-2,7.5499723E-3,3.4379013E-2,7.1708865E-2,1.03190556E-1,-1.1212543E-1,7.431476E-2,1.1416096E-2,6.135902E-2,9.443461E-2,8.266817E-2,1.0968654E-1,4.3616135E-2,1.0076739E-1,6.847222E-2,1.3864945E-1],"split_indices":[29,122,133,107,73,106,135,14,129,75,130,13,132,107,134,129,133,5,35,128,64,17,129,125,48,130,132,128,64,17,133,118,109,64,133,107,29,104,103,62,133,133,132,130,63,128,108,64,107,107,132,24,106,21,44,132,63,50,131,61,128,74,129,0,0,0,0,0,0,0,0,0,0,0,0,0,0,0,0,0,0,0,0,0,0,0,0,0,0,0,0,0,0,0,0,0,0,0,0,0,0,0,0,0,0,0,0,0,0,0,0,0,0,0,0,0,0,0,0,0,0,0,0,0,0,0,0],"split_type":[0,0,0,0,0,0,0,0,0,0,0,0,0,0,0,0,0,0,0,0,0,0,0,0,0,0,0,0,0,0,0,0,0,0,0,0,0,0,0,0,0,0,0,0,0,0,0,0,0,0,0,0,0,0,0,0,0,0,0,0,0,0,0,0,0,0,0,0,0,0,0,0,0,0,0,0,0,0,0,0,0,0,0,0,0,0,0,0,0,0,0,0,0,0,0,0,0,0,0,0,0,0,0,0,0,0,0,0,0,0,0,0,0,0,0,0,0,0,0,0,0,0,0,0,0,0,0],"sum_hessian":[2.6498175E5,8.751346E4,1.7746828E5,4.8462023E4,3.9051438E4,1.7093358E5,6.5347065E3,3.0899988E4,1.7562035E4,2.8100426E4,1.0951013E4,1.5678188E5,1.4151704E4,2.5132397E3,4.021467E3,4.204842E3,2.6695145E4,1.6089618E4,1.4724181E3,2.6839785E4,1.2606411E3,5.1717163E3,5.7792964E3,2.166231E4,1.3511956E5,1.6497985E3,1.2501905E4,1.815061E3,6.9817865E2,3.0714531E3,9.500139E2,1.7381353E3,2.4667068E3,2.5708982E4,9.861633E2,5.413907E3,1.0675711E4,1.2721083E3,2.003098E2,1.2128668E4,1.4711117E4,8.142905E2,4.463506E2,1.9648834E3,3.2068328E3,4.9344736E3,8.44823E2,1.5324207E4,6.338103E3,7.93018E4,5.5817758E4,5.090241E2,1.1407743E3,1.1167329E4,1.3345765E3,1.1115508E3,7.0351025E2,9.318355E0,6.888603E2,1.9088164E3,1.1626366E3,3.7124606E2,5.787679E2,2.956808E1,1.7085671E3,1.8522341E3,6.144726E2,6.108541E3,1.9600441E4,4.6676022E2,5.194031E2,3.090277E3,2.3236301E3,6.900456E3,3.775255E3,3.43757E2,9.283513E2,1.8406781E2,1.6241993E1,7.429609E3,4.6990586E3,1.4480141E4,2.3097653E2,7.827511E2,3.1539417E1,4.281785E2,1.8172068E1,6.827164E2,1.282167E3,2.6337349E3,5.730979E2,4.487823E3,4.4665033E2,7.1915E2,1.2567297E2,2.0102074E3,1.3314E4,2.2978638E3,4.040239E3,2.3758133E4,5.5543668E4,3.7179992E4,1.8637768E4,2.751773E2,2.3384679E2,5.3109784E2,6.0967645E2,6.9142354E3,4.2530933E3,2.1685207E2,1.1177245E3,6.819492E2,4.296016E2,3.0532132E2,3.9818893E2,1.4666246E0,7.8517303E0,6.464247E2,4.2435566E1,1.4980232E3,4.1079318E2,5.0032632E2,6.623103E2,1.0558479E2,2.656613E2,5.563207E1,5.231358E2],"tree_param":{"num_deleted":"0","num_feature":"136","num_nodes":"127","size_leaf_vector":"1"}},{"base_weights":[-8.223607E-10,-6.4249635E-2,4.0728297E-2,-2.3258506E-1,-5.2590482E-2,3.3525154E-2,1.8289372E-1,-3.2654807E-1,-1.3916187E-1,-6.0896564E-2,1.5159687E-1,2.0350337E-2,1.0769981E-1,1.2810141E-1,2.5244975E-1,-6.680539E-3,-3.8110766E-1,-1.8057244E-1,-2.4863811E-2,-8.902183E-2,-6.015485E-3,7.162385E-2,2.184166E-1,-1.7897539E-2,4.5733437E-2,4.8568744E-2,1.4701314E-1,9.788162E-2,1.8593717E-1,1.9439045E-1,3.1426102E-1,-5.259951E-1,2.0756638E-2,-4.9631158E-1,-2.499769E-1,-4.510823E-1,-1.6676947E-1,4.015358E-2,-1.6918959E-1,-1.26065E-1,-4.676376E-2,-3.6255885E-2,7.7033885E-2,1.03953816E-1,4.7537207E-5,1.4297508E-1,3.1439993E-1,1.5908597E-2,-5.8115646E-2,5.967108E-2,-1.9329058E-2,1.1437851E-2,1.0793123E-1,2.7869445E-1,1.3167167E-1,5.027278E-2,1.4755692E-1,1.7122059E-1,3.143373E-1,1.4895572E-1,2.4351324E-1,2.2725645E-1,3.595394E-1,3.144072E-2,-2.0762554E-1,1.4043654E-2,-1.2855151E-1,-8.740114E-2,-1.630843E-1,-1.9039767E-2,-8.715378E-2,-1.429763E-1,1.4311145E-1,-5.355384E-2,3.7805222E-2,1.244406E-1,4.9912557E-3,-8.512976E-2,3.635565E-2,-1.8405031E-2,-5.365791E-2,-4.315482E-2,-9.214546E-3,-1.4939143E-2,4.7539797E-2,1.6057985E-2,6.4944185E-2,2.3897214E-2,6.3475825E-2,4.853417E-3,-8.056605E-2,3.4017153E-2,8.3572015E-2,7.769894E-2,1.1884116E-1,2.1935478E-2,-6.7483634E-3,-2.4836794E-2,3.1663289E-3,1.3792678E-2,3.8530346E-2,-7.4478307E-6,-3.7780657E-2,-5.9955744E-3,3.2802768E-2,2.5507722E-2,9.839329E-2,5.7583623E-2,1.0451369E-1,3.382453E-2,7.5184226E-2,2.212242E-2,-2.37791E-2,3.7524093E-2,7.8637645E-2,4.235187E-2,7.236424E-2,1.3942888E-1,7.222105E-2,3.5135616E-2,6.9900945E-2,7.8997515E-2,4.5612793E-2,5.037882E-2,8.593487E-2,9.9453814E-2,1.3913931E-1],"categories":[],"categories_nodes":[],"categories_segments":[],"categories_sizes":[],"default_left":[0,0,0,0,0,0,0,0,0,0,0,0,0,0,0,0,0,0,0,0,0,0,0,0,0,0,0,0,0,0,0,0,0,0,0,0,0,0,0,0,0,0,0,0,0,0,0,0,0,0,0,0,0,0,0,0,0,0,0,0,0,0,0,0,0,0,0,0,0,0,0,0,0,0,0,0,0,0,0,0,0,0,0,0,0,0,0,0,0,0,0,0,0,0,0,0,0,0,0,0,0,0,0,0,0,0,0,0,0,0,0,0,0,0,0,0,0,0,0,0,0,0,0,0,0,0,0],"id":4,"left_children":[1,3,5,7,9,11,13,15,17,19,21,23,25,27,29,31,33,35,37,39,41,43,45,47,49,51,53,55,57,59,61,63,65,67,69,71,73,75,77,79,81,83,85,87,89,91,93,95,97,99,101,103,105,107,109,111,113,115,117,119,121,123,125,-1,-1,-1,-1,-1,-1,-1,-1,-1,-1,-1,-1,-1,-1,-1,-1,-1,-1,-1,-1,-1,-1,-1,-1,-1,-1,-1,-1,-1,-1,-1,-1,-1,-1,-1,-1,-1,-1,-1,-1,-1,-1,-1,-1,-1,-1,-1,-1,-1,-1,-1,-1,-1,-1,-1,-1,-1,-1,-1,-1,-1,-1,-1,-1],"loss_changes":[6.8348315E2,1.9887256E2,1.6369412E2,5.7572693E1,1.6074265E2,1.4868446E2,2.934674E1,5.7093628E1,1.558194E1,1.4056769E2,1.9782005E1,1.2543709E2,5.3339508E1,7.5217896E0,1.2125168E1,6.8180766E0,4.209787E1,8.949814E0,8.2357235E0,9.4247375E1,7.750108E1,3.9059124E0,1.456691E1,7.007711E1,7.042694E1,2.02019E1,2.7808594E1,6.698742E0,2.7417107E0,3.8776093E0,6.391159E0,2.588273E0,5.3430486E0,1.4257294E1,9.878906E0,2.9912987E0,7.93515E0,5.326739E0,9.102156E0,1.0961032E2,4.3820763E1,5.965657E1,2.6990204E1,3.023757E0,2.2841327E0,4.508301E0,3.9151688E0,6.15263E1,3.988315E1,6.022937E1,2.819896E1,1.7353188E1,1.77487E1,8.622215E0,2.7762436E1,4.412192E0,3.539339E0,2.7620506E0,1.5591326E0,2.4172974E0,1.4840927E0,1.9364643E0,2.9990082E0,0E0,0E0,0E0,0E0,0E0,0E0,0E0,0E0,0E0,0E0,0E0,0E0,0E0,0E0,0E0,0E0,0E0,0E0,0E0,0E0,0E0,0E0,0E0,0E0,0E0,0E0,0E0,0E0,0E0,0E0,0E0,0E0,0E0,0E0,0E0,0E0,0E0,0E0,0E0,0E0,0E0,0E0,0E0,0E0,0E0,0E0,0E0,0E0,0E0,0E0,0E0,0E0,0E0,0E0,0E0,0E0,0E0,0E0,0E0,0E0,0E0,0E0,0E0,0E0],"parents":[2147483647,0,0,1,1,2,2,3,3,4,4,5,5,6,6,7,7,8,8,9,9,10,10,11,11,12,12,13,13,14,14,15,15,16,16,17,17,18,18,19,19,20,20,21,21,22,22,23,23,24,24,25,25,26,26,27,27,28,28,29,29,30,30,31,31,32,32,33,33,34,34,35,35,36,36,37,37,38,38,39,39,40,40,41,41,42,42,43,43,44,44,45,45,46,46,47,47,48,48,49,49,50,50,51,51,52,52,53,53,54,54,55,55,56,56,57,57,58,58,59,59,60,60,61,61,62,62],"right_children":[2,4,6,8,10,12,14,16,18,20,22,24,26,28,30,32,34,36,38,40,42,44,46,48,50,52,54,56,58,60,62,64,66,68,70,72,74,76,78,80,82,84,86,88,90,92,94,96,98,100,102,104,106,108,110,112,114,116,118,120,122,124,126,-1,-1,-1,-1,-1,-1,-1,-1,-1,-1,-1,-1,-1,-1,-1,-1,-1,-1,-1,-1,-1,-1,-1,-1,-1,-1,-1,-1,-1,-1,-1,-1,-1,-1,-1,-1,-1,-1,-1,-1,-1,-1,-1,-1,-1,-1,-1,-1,-1,-1,-1,-1,-1,-1,-1,-1,-1,-1,-1,-1,-1,-1,-1,-1],"split_conditions":[7.5E-1,-2.6789028E1,1E0,6.935255E0,1E0,4.03E2,2.06E1,2.4E1,8.20696E-1,3.480479E0,1.68E1,6.9690506E1,4.4872E-2,3E0,6E1,-4.442978E1,1.2300206E1,3.195E-3,-4.5356277E1,3.63636E-1,3.0593E4,1.6E1,4.8E1,3E0,5.2E1,1.9313929E1,5E0,4.73315E-1,-3.113513E0,1.721742E1,3.4E1,1.1955199E1,8.9E1,2.02E2,3.78E2,6.4565E4,-2.6314577E1,1.4373648E1,1.1763923E1,9.3824E-2,1.8214306E1,2.2E1,1.7175707E1,5E0,5.703E4,1.53846E-1,3.04E2,6E0,2.1723E4,2.6425213E1,9E1,6.3736E4,2.9E1,1.2468684E1,2.85714E-1,3.8E1,3.6486122E1,2.2704956E1,1.0346829E1,4E1,6.2E1,1.1E1,2.6988693E1,3.144072E-2,-2.0762554E-1,1.4043654E-2,-1.2855151E-1,-8.740114E-2,-1.630843E-1,-1.9039767E-2,-8.715378E-2,-1.429763E-1,1.4311145E-1,-5.355384E-2,3.7805222E-2,1.244406E-1,4.9912557E-3,-8.512976E-2,3.635565E-2,-1.8405031E-2,-5.365791E-2,-4.315482E-2,-9.214546E-3,-1.4939143E-2,4.7539797E-2,1.6057985E-2,6.4944185E-2,2.3897214E-2,6.3475825E-2,4.853417E-3,-8.056605E-2,3.4017153E-2,8.3572015E-2,7.769894E-2,1.1884116E-1,2.1935478E-2,-6.7483634E-3,-2.4836794E-2,3.1663289E-3,1.3792678E-2,3.8530346E-2,-7.4478307E-6,-3.7780657E-2,-5.9955744E-3,3.2802768E-2,2.5507722E-2,9.839329E-2,5.7583623E-2,1.0451369E-1,3.382453E-2,7.5184226E-2,2.212242E-2,-2.37791E-2,3.7524093E-2,7.8637645E-2,4.235187E-2,7.236424E-2,1.3942888E-1,7.222105E-2,3.5135616E-2,6.9900945E-2,7.8997515E-2,4.5612793E-2,5.037882E-2,8.593487E-2,9.9453814E-2,1.3913931E-1],"split_indices":[7,114,133,92,133,127,135,14,104,88,135,74,49,128,133,115,109,64,118,7,129,132,133,125,132,109,13,92,124,107,134,15,132,14,14,129,123,105,82,100,16,128,108,134,130,56,134,132,129,107,131,129,128,107,48,131,105,107,108,126,132,127,109,0,0,0,0,0,0,0,0,0,0,0,0,0,0,0,0,0,0,0,0,0,0,0,0,0,0,0,0,0,0,0,0,0,0,0,0,0,0,0,0,0,0,0,0,0,0,0,0,0,0,0,0,0,0,0,0,0,0,0,0,0,0,0,0],"split_type":[0,0,0,0,0,0,0,0,0,0,0,0,0,0,0,0,0,0,0,0,0,0,0,0,0,0,0,0,0,0,0,0,0,0,0,0,0,0,0,0,0,0,0,0,0,0,0,0,0,0,0,0,0,0,0,0,0,0,0,0,0,0,0,0,0,0,0,0,0,0,0,0,0,0,0,0,0,0,0,0,0,0,0,0,0,0,0,0,0,0,0,0,0,0,0,0,0,0,0,0,0,0,0,0,0,0,0,0,0,0,0,0,0,0,0,0,0,0,0,0,0,0,0,0,0,0,0],"sum_hessian":[2.611906E5,1.0133391E5,1.5985669E5,6.56268E3,9.477123E4,1.5214894E5,7.707744E3,3.270643E3,3.292037E3,9.106742E4,3.703805E3,1.2920158E5,2.2947361E4,4.3130273E3,3.3947166E3,4.7674484E2,2.7938982E3,2.416097E3,8.7594E2,6.0210387E4,3.0857035E4,1.6869067E3,2.0168982E3,5.1540055E4,7.766152E4,9.164819E3,1.3782543E4,2.8346077E3,1.4784197E3,1.752623E3,1.6420935E3,2.3012226E1,4.537326E2,1.4857867E3,1.3081115E3,1.1575988E2,2.3003372E3,6.043899E2,2.7155014E2,3.2083875E4,2.8126514E4,2.2620791E4,8.236245E3,1.1617217E3,5.25185E2,1.1306853E3,8.862129E2,2.8002553E4,2.3537502E4,6.396011E4,1.3701412E4,5.6389077E3,3.5259116E3,1.436384E3,1.2346159E4,1.4484369E3,1.3861709E3,1.3284884E3,1.4993124E2,9.1258545E2,8.4003766E2,5.6412274E2,1.0779707E3,4.873195E0,1.813903E1,4.2970697E2,2.402564E1,2.7993195E2,1.2058549E3,2.340012E2,1.0741102E3,1.131373E2,2.6225865E0,2.2120066E3,8.833042E1,3.4713253E1,5.6967664E2,1.947345E2,7.681563E1,1.4415609E4,1.7668266E4,3.9887437E3,2.4137771E4,2.1150684E4,1.4701072E3,7.049292E3,1.1869526E3,9.4919464E2,2.1252708E2,4.963189E2,2.8866077E1,9.296847E2,2.010006E2,5.306764E2,3.555365E2,1.1246938E4,1.6755613E4,1.7315654E4,6.2218467E3,5.333845E4,1.0621661E4,1.1601602E4,2.0998105E3,4.2694106E3,1.369497E3,3.1947446E3,3.311671E2,6.4152057E2,7.9486346E2,1.0653224E4,1.6929347E3,1.2266337E3,2.2180319E2,1.1605752E3,2.2559566E2,9.315836E2,3.969048E2,4.7511646E1,1.024196E2,6.636062E2,2.4897925E2,6.8894E2,1.5109763E2,2.8365897E2,2.804638E2,8.528796E2,2.2509116E2],"tree_param":{"num_deleted":"0","num_feature":"136","num_nodes":"127","size_leaf_vector":"1"}},{"base_weights":[2.6156877E-10,-7.3013216E-2,2.991375E-2,-1.5839894E-1,-5.0112467E-2,2.4097739E-3,6.802137E-2,-2.3127751E-1,-9.5870495E-2,-5.6825668E-2,1.6790134E-1,-5.6075905E-2,2.4001405E-2,1.2951928E-1,4.5218892E-2,-5.2376166E-2,-2.819332E-1,-1.6647609E-1,-4.5459896E-2,-1.0416383E-1,-2.5433574E-2,7.678827E-2,2.2290976E-1,-9.093745E-2,-1.4150727E-2,-4.8554484E-2,4.1489504E-2,1.0370882E-1,1.8839782E-1,3.2452404E-2,1.3363588E-1,-1.5865354E-1,6.8195775E-2,-4.410226E-1,-2.2940609E-1,-8.8703506E-2,-2.3076484E-1,-5.685803E-2,2.0750731E-1,-1.2803966E-1,-1.9532323E-2,-6.559266E-2,8.913651E-3,-2.1879089E-1,8.993424E-2,1.5845503E-1,2.8867534E-1,-2.2268826E-2,-1.18724786E-1,9.442609E-2,-3.2798022E-2,-3.291944E-2,-1.6884248E-1,9.650258E-2,2.3777546E-2,8.5343E-2,2.1807271E-1,1.567383E-1,3.1428292E-1,9.616204E-3,6.340087E-2,1.8003546E-1,8.87726E-2,-6.265868E-2,3.339689E-2,4.2031053E-3,5.6840688E-2,-1.34432E-1,1.6291209E-1,-5.9935976E-2,-1.00661136E-1,-1.4081903E-2,-6.4308606E-2,-1.2620786E-1,-6.048433E-2,-2.9157653E-2,3.2342894E-3,5.109627E-2,1.5853027E-1,1.486437E-3,-4.637114E-2,2.6132429E-2,-1.1571392E-2,-4.1614585E-2,-7.4919616E-3,2.3861594E-2,-3.110091E-3,-1.2751155E-1,8.941992E-2,2.8818171E-2,-1.3192242E-1,-4.105181E-2,5.699707E-2,8.9291364E-2,-1.0483428E-1,-1.7725904E-2,1.9671135E-2,-4.6605032E-2,-2.0602204E-2,6.955939E-2,1.981448E-2,-2.631501E-2,2.532641E-4,-2.0042408E-2,2.6528104E-3,-1.2589167E-2,-7.637912E-2,1.7693112E-2,6.410523E-2,3.862897E-3,3.9665144E-2,3.1966574E-2,-2.1997727E-3,5.022445E-2,1.2067658E-1,5.3487893E-2,-1.7734095E-2,1.14553064E-1,3.578451E-2,-4.958996E-3,1.5785415E-2,3.1334933E-2,7.8099403E-3,4.0888473E-2,7.9028316E-2,1.5236711E-3,3.8307667E-2],"categories":[],"categories_nodes":[],"categories_segments":[],"categories_sizes":[],"default_left":[0,0,0,0,0,0,0,0,0,0,0,0,0,0,0,0,0,0,0,0,0,0,0,0,0,0,0,0,0,0,0,0,0,0,0,0,0,0,0,0,0,0,0,0,0,0,0,0,0,0,0,0,0,0,0,0,0,0,0,0,0,0,0,0,0,0,0,0,0,0,0,0,0,0,0,0,0,0,0,0,0,0,0,0,0,0,0,0,0,0,0,0,0,0,0,0,0,0,0,0,0,0,0,0,0,0,0,0,0,0,0,0,0,0,0,0,0,0,0,0,0,0,0,0,0,0,0],"id":5,"left_children":[1,3,5,7,9,11,13,15,17,19,21,23,25,27,29,31,33,35,37,39,41,43,45,47,49,51,53,55,57,59,61,63,65,67,69,71,73,75,77,79,81,83,85,87,89,91,93,95,97,99,101,103,105,107,109,111,113,115,117,119,121,123,125,-1,-1,-1,-1,-1,-1,-1,-1,-1,-1,-1,-1,-1,-1,-1,-1,-1,-1,-1,-1,-1,-1,-1,-1,-1,-1,-1,-1,-1,-1,-1,-1,-1,-1,-1,-1,-1,-1,-1,-1,-1,-1,-1,-1,-1,-1,-1,-1,-1,-1,-1,-1,-1,-1,-1,-1,-1,-1,-1,-1,-1,-1,-1,-1],"loss_changes":[5.6428937E2,1.4681915E2,1.920918E2,7.2339966E1,8.6667114E1,1.3442393E2,1.0772974E2,6.643143E1,3.0418121E1,8.535828E1,8.849121E0,4.1949417E1,9.865191E1,3.1560303E1,6.326107E1,2.0759127E1,4.7647247E1,1.778173E1,1.4396237E1,4.6277206E1,4.7642506E1,2.6132858E0,4.627758E0,2.9899826E1,2.6388924E1,2.8393497E1,6.104064E1,3.0331055E1,2.5186813E1,3.4614044E1,1.47039795E1,1.1692989E1,4.986723E0,1.0123016E1,1.3443008E1,8.45443E0,1.0703583E1,1.3026595E1,2.479497E0,6.3031433E1,1.0237854E1,4.729004E1,2.5352371E1,3.1875725E0,2.1182647E0,5.2317724E0,3.2180977E0,1.460818E1,2.0440292E1,7.4356136E0,2.055043E1,1.8914799E1,1.8885479E1,6.707811E1,5.6020508E1,2.4479256E1,1.8581512E1,2.3560059E1,1.6705215E1,3.1688612E1,3.1894798E1,1.2640221E1,1.171648E1,0E0,0E0,0E0,0E0,0E0,0E0,0E0,0E0,0E0,0E0,0E0,0E0,0E0,0E0,0E0,0E0,0E0,0E0,0E0,0E0,0E0,0E0,0E0,0E0,0E0,0E0,0E0,0E0,0E0,0E0,0E0,0E0,0E0,0E0,0E0,0E0,0E0,0E0,0E0,0E0,0E0,0E0,0E0,0E0,0E0,0E0,0E0,0E0,0E0,0E0,0E0,0E0,0E0,0E0,0E0,0E0,0E0,0E0,0E0,0E0,0E0,0E0,0E0,0E0],"parents":[2147483647,0,0,1,1,2,2,3,3,4,4,5,5,6,6,7,7,8,8,9,9,10,10,11,11,12,12,13,13,14,14,15,15,16,16,17,17,18,18,19,19,20,20,21,21,22,22,23,23,24,24,25,25,26,26,27,27,28,28,29,29,30,30,31,31,32,32,33,33,34,34,35,35,36,36,37,37,38,38,39,39,40,40,41,41,42,42,43,43,44,44,45,45,46,46,47,47,48,48,49,49,50,50,51,51,52,52,53,53,54,54,55,55,56,56,57,57,58,58,59,59,60,60,61,61,62,62],"right_children":[2,4,6,8,10,12,14,16,18,20,22,24,26,28,30,32,34,36,38,40,42,44,46,48,50,52,54,56,58,60,62,64,66,68,70,72,74,76,78,80,82,84,86,88,90,92,94,96,98,100,102,104,106,108,110,112,114,116,118,120,122,124,126,-1,-1,-1,-1,-1,-1,-1,-1,-1,-1,-1,-1,-1,-1,-1,-1,-1,-1,-1,-1,-1,-1,-1,-1,-1,-1,-1,-1,-1,-1,-1,-1,-1,-1,-1,-1,-1,-1,-1,-1,-1,-1,-1,-1,-1,-1,-1,-1,-1,-1,-1,-1,-1,-1,-1,-1,-1,-1,-1,-1,-1,-1,-1,-1],"split_conditions":[5.319E-3,-2.3785322E1,3E0,2.3138367E1,2E0,4.0346E-2,3.3E1,1.63E2,7.75445E-1,1.127935E1,1.505E1,1.3644146E1,5.81E2,1.0815807E1,5.55556E-1,2.6E1,3.195E-3,1.233726E0,5.824368E0,1.6685684E1,2E0,2.09E2,4.7E1,5E0,5E0,-4.78749E0,5E0,5.55556E-1,1.7E1,1.04167E-1,9E0,5.38462E-1,9E0,1E0,2.4025E2,2.25E2,5.4318E-1,3.7073746E1,7.77778E-1,3.2E1,6E0,5.747E-3,3E0,1.6E1,1.63E2,1.2062833E1,1.26E2,2E0,9.345383E0,4E0,2E0,3E0,1.1E1,2E0,1.6638584E1,7E0,6.2412E4,6.4571E4,2.5E-1,1.035E4,1E0,1.7E1,2.6875E0,-6.265868E-2,3.339689E-2,4.2031053E-3,5.6840688E-2,-1.34432E-1,1.6291209E-1,-5.9935976E-2,-1.00661136E-1,-1.4081903E-2,-6.4308606E-2,-1.2620786E-1,-6.048433E-2,-2.9157653E-2,3.2342894E-3,5.109627E-2,1.5853027E-1,1.486437E-3,-4.637114E-2,2.6132429E-2,-1.1571392E-2,-4.1614585E-2,-7.4919616E-3,2.3861594E-2,-3.110091E-3,-1.2751155E-1,8.941992E-2,2.8818171E-2,-1.3192242E-1,-4.105181E-2,5.699707E-2,8.9291364E-2,-1.0483428E-1,-1.7725904E-2,1.9671135E-2,-4.6605032E-2,-2.0602204E-2,6.955939E-2,1.981448E-2,-2.631501E-2,2.532641E-4,-2.0042408E-2,2.6528104E-3,-1.2589167E-2,-7.637912E-2,1.7693112E-2,6.410523E-2,3.862897E-3,3.9665144E-2,3.1966574E-2,-2.1997727E-3,5.022445E-2,1.2067658E-1,5.3487893E-2,-1.7734095E-2,1.14553064E-1,3.578451E-2,-4.958996E-3,1.5785415E-2,3.1334933E-2,7.8099403E-3,4.0888473E-2,7.9028316E-2,1.5236711E-3,3.8307667E-2],"split_indices":[54,122,128,109,133,49,126,14,104,15,135,107,129,108,46,131,64,75,86,107,128,129,133,13,13,120,13,47,128,58,132,5,127,133,40,40,104,109,6,14,13,64,132,127,131,18,131,125,108,13,127,127,131,125,71,13,130,130,57,129,11,128,40,0,0,0,0,0,0,0,0,0,0,0,0,0,0,0,0,0,0,0,0,0,0,0,0,0,0,0,0,0,0,0,0,0,0,0,0,0,0,0,0,0,0,0,0,0,0,0,0,0,0,0,0,0,0,0,0,0,0,0,0,0,0,0,0],"split_type":[0,0,0,0,0,0,0,0,0,0,0,0,0,0,0,0,0,0,0,0,0,0,0,0,0,0,0,0,0,0,0,0,0,0,0,0,0,0,0,0,0,0,0,0,0,0,0,0,0,0,0,0,0,0,0,0,0,0,0,0,0,0,0,0,0,0,0,0,0,0,0,0,0,0,0,0,0,0,0,0,0,0,0,0,0,0,0,0,0,0,0,0,0,0,0,0,0,0,0,0,0,0,0,0,0,0,0,0,0,0,0,0,0,0,0,0,0,0,0,0,0,0,0,0,0,0,0],"sum_hessian":[2.5836053E5,7.508712E4,1.8327342E5,1.5878397E4,5.920872E4,1.0644696E5,7.682646E4,7.3311025E3,8.547295E3,5.7440715E4,1.7680063E3,2.8701375E4,7.7745586E4,2.0779584E4,5.6046875E4,1.6181818E3,5.712921E3,3.559509E3,4.987786E3,2.2902395E4,3.453832E4,6.664798E2,1.1015265E3,1.5670173E4,1.3031202E4,1.5099191E4,6.264639E4,1.444856E4,6.331025E3,4.8976543E4,7.0703354E3,8.599066E2,7.582751E2,1.416216E3,4.296705E3,1.6119049E3,1.947604E3,4.773479E3,2.1430698E2,1.7862578E4,5.039816E3,1.5921661E4,1.8616658E4,2.7713575E1,6.3876624E2,5.580294E2,5.4349713E2,4.514832E3,1.1155341E4,1.9093934E3,1.112181E4,1.33634795E4,1.7357124E3,1.5256251E4,4.739014E4,1.2450816E4,1.9977432E3,5.0605615E3,1.2704633E3,2.8182559E4,2.0793982E4,3.4741755E3,3.5961597E3,7.252543E2,1.3465236E2,5.248743E2,2.3340079E2,1.4066345E3,9.5814295E0,3.361457E3,9.3524786E2,1.210843E3,4.0106195E2,2.5735947E2,1.6902446E3,2.9900378E3,1.7834414E3,1.9342516E2,2.088183E1,2.9708777E3,1.4891701E4,7.6293243E2,4.2768833E3,5.6850654E3,1.0236596E4,3.9917473E3,1.4624911E4,1.9935951E1,7.777625E0,6.3227185E2,6.494343E0,5.352103E1,5.0450836E2,5.3649554E2,7.0015893E0,3.181602E3,1.3332299E3,6.440394E3,4.714947E3,3.2554654E2,1.5838469E3,4.224307E3,6.897502E3,7.3768296E3,5.98665E3,7.006104E2,1.0351019E3,1.1556853E4,3.699398E3,4.306229E4,4.327851E3,1.0131661E4,2.3191553E3,1.5683033E3,4.2943988E2,4.6012603E3,4.5930154E2,9.4284485E2,3.2761847E2,1.7526578E4,1.06559795E4,9.908063E3,1.0885919E4,2.2805994E3,1.1935762E3,1.141843E3,2.4543164E3],"tree_param":{"num_deleted":"0","num_feature":"136","num_nodes":"127","size_leaf_vector":"1"}},{"base_weights":[3.4100783E-10,-5.376166E-2,3.3689946E-2,-9.37553E-2,-1.1933187E-2,1.9123927E-2,8.450505E-2,6.4858906E-2,-1.0854748E-1,-5.7867326E-2,1.3582472E-2,4.0101274E-3,8.504614E-2,1.4320894E-1,5.7896636E-2,3.0574618E-2,2.125859E-1,-2.7124473E-1,-8.922255E-2,-1.0535184E-1,-7.015554E-3,-6.2171537E-3,7.821407E-2,-1.52273625E-2,5.8207564E-2,6.7231156E-2,1.9533397E-1,8.520315E-2,3.4301597E-1,2.0089154E-1,4.762281E-2,7.333247E-2,-6.6663206E-2,1.214478E-1,3.4099233E-1,-2.9216468E-1,1.967138E-1,-1.2002389E-1,-2.512554E-2,-8.4812574E-2,-2.3606625E-1,-1.820988E-2,2.3343752E-1,-2.331695E-2,4.8741717E-2,3.787572E-1,7.192706E-2,-7.807652E-2,-4.374321E-3,3.2211505E-2,1.12308554E-1,9.070759E-2,3.155145E-3,1.5685879E-1,2.619256E-1,3.6831442E-2,2.256641E-1,2.0318168E-1,4.4616997E-1,1.07107125E-1,3.0319577E-1,4.158179E-2,2.3373644E-1,3.3454243E-2,-2.1622308E-2,-2.8061302E-2,9.523763E-2,-1.20970964E-1,4.1888796E-2,7.648117E-2,1.3892433E-1,-7.8164645E-2,-1.2761691E-1,1.7330458E-2,1.187359E-1,-3.8579546E-2,2.296171E-2,3.239255E-2,-1.1135837E-2,-2.9155513E-2,2.99239E-2,-9.986107E-2,-4.3594405E-2,-7.407651E-3,6.805187E-2,-1.3696712E-1,7.5724706E-2,-1.7794536E-2,2.7821911E-3,1.1488794E-2,1.0129334E-1,1.3717183E-1,2.6908953E-2,2.748708E-2,-1.5005529E-3,-2.0450514E-2,-7.575102E-2,1.7838152E-2,-4.795298E-3,2.3387847E-3,2.9438412E-2,2.881043E-2,7.4983075E-2,2.1899216E-2,4.56302E-2,6.113089E-3,-6.1150458E-2,6.512947E-2,3.3606973E-2,7.0351444E-2,1.0645618E-1,3.865171E-3,3.84465E-2,9.9791504E-2,3.7852727E-2,4.886121E-2,1.4944558E-1,3.5409607E-2,1.4916733E-1,2.4029804E-2,1.21172175E-1,1.09715015E-1,3.8247E-2,8.817676E-3,3.216384E-2,6.3136704E-2,1.0363133E-1],"categories":[],"categories_nodes":[],"categories_segments":[],"categories_sizes":[],"default_left":[0,0,0,0,0,0,0,0,0,0,0,0,0,0,0,0,0,0,0,0,0,0,0,0,0,0,0,0,0,0,0,0,0,0,0,0,0,0,0,0,0,0,0,0,0,0,0,0,0,0,0,0,0,0,0,0,0,0,0,0,0,0,0,0,0,0,0,0,0,0,0,0,0,0,0,0,0,0,0,0,0,0,0,0,0,0,0,0,0,0,0,0,0,0,0,0,0,0,0,0,0,0,0,0,0,0,0,0,0,0,0,0,0,0,0,0,0,0,0,0,0,0,0,0,0,0,0],"id":6,"left_children":[1,3,5,7,9,11,13,15,17,19,21,23,25,27,29,31,33,35,37,39,41,43,45,47,49,51,53,55,57,59,61,63,65,67,69,71,73,75,77,79,81,83,85,87,89,91,93,95,97,99,101,103,105,107,109,111,113,115,117,119,121,123,125,-1,-1,-1,-1,-1,-1,-1,-1,-1,-1,-1,-1,-1,-1,-1,-1,-1,-1,-1,-1,-1,-1,-1,-1,-1,-1,-1,-1,-1,-1,-1,-1,-1,-1,-1,-1,-1,-1,-1,-1,-1,-1,-1,-1,-1,-1,-1,-1,-1,-1,-1,-1,-1,-1,-1,-1,-1,-1,-1,-1,-1,-1,-1,-1],"loss_changes":[4.631669E2,1.647999E2,1.16358215E2,1.181673E2,5.643857E1,1.2173591E2,5.4698364E1,2.1754686E1,1.4481152E2,4.1522987E1,3.961692E1,1.0363432E2,4.4760498E1,1.2656581E2,3.5397697E1,1.4508819E1,9.427956E0,4.793097E1,8.129065E1,2.3854553E1,2.2358534E1,2.227323E1,1.3690502E1,5.0038177E1,3.661776E1,2.951448E1,8.077194E0,5.751662E1,3.5353333E1,1.5464935E1,2.5272812E1,1.3462926E1,1.1033892E1,4.5857973E0,3.4052315E0,1.9607178E1,5.781863E0,4.6884583E1,2.134146E1,1.7561573E1,1.0555191E1,1.2612349E1,4.9538803E0,2.120745E1,1.6959839E1,3.3283882E0,1.0777401E1,1.8652077E1,4.6363785E1,2.8307041E1,1.890422E1,1.5601715E1,1.8762285E1,5.406437E0,2.8696823E0,1.3774052E1,2.3038017E1,1.2344227E1,2.3617096E1,6.735095E0,8.433792E0,1.7422134E1,1.7651672E0,0E0,0E0,0E0,0E0,0E0,0E0,0E0,0E0,0E0,0E0,0E0,0E0,0E0,0E0,0E0,0E0,0E0,0E0,0E0,0E0,0E0,0E0,0E0,0E0,0E0,0E0,0E0,0E0,0E0,0E0,0E0,0E0,0E0,0E0,0E0,0E0,0E0,0E0,0E0,0E0,0E0,0E0,0E0,0E0,0E0,0E0,0E0,0E0,0E0,0E0,0E0,0E0,0E0,0E0,0E0,0E0,0E0,0E0,0E0,0E0,0E0,0E0,0E0,0E0],"parents":[2147483647,0,0,1,1,2,2,3,3,4,4,5,5,6,6,7,7,8,8,9,9,10,10,11,11,12,12,13,13,14,14,15,15,16,16,17,17,18,18,19,19,20,20,21,21,22,22,23,23,24,24,25,25,26,26,27,27,28,28,29,29,30,30,31,31,32,32,33,33,34,34,35,35,36,36,37,37,38,38,39,39,40,40,41,41,42,42,43,43,44,44,45,45,46,46,47,47,48,48,49,49,50,50,51,51,52,52,53,53,54,54,55,55,56,56,57,57,58,58,59,59,60,60,61,61,62,62],"right_children":[2,4,6,8,10,12,14,16,18,20,22,24,26,28,30,32,34,36,38,40,42,44,46,48,50,52,54,56,58,60,62,64,66,68,70,72,74,76,78,80,82,84,86,88,90,92,94,96,98,100,102,104,106,108,110,112,114,116,118,120,122,124,126,-1,-1,-1,-1,-1,-1,-1,-1,-1,-1,-1,-1,-1,-1,-1,-1,-1,-1,-1,-1,-1,-1,-1,-1,-1,-1,-1,-1,-1,-1,-1,-1,-1,-1,-1,-1,-1,-1,-1,-1,-1,-1,-1,-1,-1,-1,-1,-1,-1,-1,-1,-1,-1,-1,-1,-1,-1,-1,-1,-1,-1,-1,-1,-1],"split_conditions":[4E0,-1.0449263E1,9E0,1.1E1,1.3699E-2,2.3254444E1,3E0,1E1,4.372E-3,3E0,7.2E1,4.0748E4,4.4E0,2.0789742E2,2E0,1E0,4.0056E4,1E0,1.6432545E1,1.186E3,1.5625E-1,1.9590448E1,2E0,2.5316E-2,2.0743345E1,9.98647E-1,3.35E1,1.66667E-1,1.90476E-1,1.1873556E1,3E0,9.5E1,1.0024259E1,5E0,8.834983E0,2.226E3,4.2E1,1E0,5E0,1E0,-7.017909E0,1E0,-5.971601E0,3.8746E4,2.4E1,3.3E2,2.1E1,6.4055E4,5E0,7.8616E-2,6.4565E4,1.1448E4,4.9E1,-1.7969612E1,4.2E1,3.07692E-1,8E0,1.53846E-1,6.339E4,1.3480362E1,5.7E1,5.4643E4,4E1,3.3454243E-2,-2.1622308E-2,-2.8061302E-2,9.523763E-2,-1.20970964E-1,4.1888796E-2,7.648117E-2,1.3892433E-1,-7.8164645E-2,-1.2761691E-1,1.7330458E-2,1.187359E-1,-3.8579546E-2,2.296171E-2,3.239255E-2,-1.1135837E-2,-2.9155513E-2,2.99239E-2,-9.986107E-2,-4.3594405E-2,-7.407651E-3,6.805187E-2,-1.3696712E-1,7.5724706E-2,-1.7794536E-2,2.7821911E-3,1.1488794E-2,1.0129334E-1,1.3717183E-1,2.6908953E-2,2.748708E-2,-1.5005529E-3,-2.0450514E-2,-7.575102E-2,1.7838152E-2,-4.795298E-3,2.3387847E-3,2.9438412E-2,2.881043E-2,7.4983075E-2,2.1899216E-2,4.56302E-2,6.113089E-3,-6.1150458E-2,6.512947E-2,3.3606973E-2,7.0351444E-2,1.0645618E-1,3.865171E-3,3.84465E-2,9.9791504E-2,3.7852727E-2,4.886121E-2,1.4944558E-1,3.5409607E-2,1.4916733E-1,2.4029804E-2,1.21172175E-1,1.09715015E-1,3.8247E-2,8.817676E-3,3.216384E-2,6.3136704E-2,1.0363133E-1],"split_indices":[29,122,128,10,49,107,132,10,64,128,127,129,135,74,125,12,129,133,107,14,53,107,125,49,109,104,135,48,47,107,133,131,106,131,15,10,134,133,13,133,119,133,111,130,134,14,132,130,13,49,129,129,131,113,134,47,13,48,130,108,132,129,39,0,0,0,0,0,0,0,0,0,0,0,0,0,0,0,0,0,0,0,0,0,0,0,0,0,0,0,0,0,0,0,0,0,0,0,0,0,0,0,0,0,0,0,0,0,0,0,0,0,0,0,0,0,0,0,0,0,0,0,0,0,0,0,0],"split_type":[0,0,0,0,0,0,0,0,0,0,0,0,0,0,0,0,0,0,0,0,0,0,0,0,0,0,0,0,0,0,0,0,0,0,0,0,0,0,0,0,0,0,0,0,0,0,0,0,0,0,0,0,0,0,0,0,0,0,0,0,0,0,0,0,0,0,0,0,0,0,0,0,0,0,0,0,0,0,0,0,0,0,0,0,0,0,0,0,0,0,0,0,0,0,0,0,0,0,0,0,0,0,0,0,0,0,0,0,0,0,0,0,0,0,0,0,0,0,0,0,0,0,0,0,0,0,0],"sum_hessian":[2.5571789E5,9.851279E4,1.5720511E5,5.036032E4,4.8152473E4,1.2218303E5,3.502207E4,4.2956265E3,4.6064695E4,1.7195426E4,3.0957045E4,9.939588E4,2.2787152E4,1.0921816E4,2.4100256E4,3.4874666E3,8.081598E2,4.889212E3,4.1175484E4,8.891563E3,8.303862E3,2.3698125E4,7.25892E3,7.335802E4,2.6037857E4,1.9619578E4,3.1675745E3,8.465602E3,2.4562144E3,1.6142314E3,2.2486025E4,2.4224858E3,1.0649807E3,4.738117E2,3.3434805E2,4.680354E3,2.0885805E2,2.7810488E4,1.3364994E4,7.6855713E3,1.205992E3,7.9353555E3,3.6850732E2,1.807491E4,5.623216E3,1.475227E2,7.1113975E3,1.0801447E4,6.2556574E4,1.7588166E4,8.449692E3,1.4358453E4,5.261126E3,2.0097438E3,1.1578308E3,6.297977E3,2.1676245E3,1.0439789E3,1.4122355E3,8.432519E2,7.7097955E2,2.1780287E4,7.05738E2,1.9188561E3,5.0362982E2,9.960502E2,6.8930534E1,1.5159475E1,4.5865222E2,1.9792639E2,1.3642166E2,3.7850679E3,8.952859E2,1.2376477E2,8.509327E1,2.6648363E4,1.1621251E3,1.104125E3,1.2260869E4,7.203159E3,4.8241214E2,5.822465E2,6.237455E2,7.7317275E3,2.0362799E2,9.2472E0,3.592601E2,8.588118E3,9.486791E3,5.4280874E3,1.9512856E2,1.1556431E2,3.1958405E1,5.661628E3,1.4497694E3,1.0222178E4,5.7926935E2,9.626032E3,5.2930543E4,1.2835136E4,4.75303E3,7.5577695E3,8.919232E2,1.1145478E4,3.2129749E3,4.8578486E3,4.032773E2,8.5591925E2,1.1538245E3,8.96747E2,2.6108377E2,4.990478E3,1.3074991E3,1.0433864E3,1.1242382E3,9.1982654E2,1.2415242E2,1.9058916E2,1.2216462E3,7.740829E2,6.916897E1,5.6784375E2,2.0313582E2,1.836992E4,3.4103674E3,5.864039E2,1.1933408E2],"tree_param":{"num_deleted":"0","num_feature":"136","num_nodes":"127","size_leaf_vector":"1"}},{"base_weights":[-3.4540856E-10,-5.1956255E-2,2.7572282E-2,-1.1127658E-1,-3.0965915E-2,1.9346721E-2,1.11786395E-1,-1.5114863E-1,-4.7168735E-2,-7.017127E-2,-6.129126E-3,3.68857E-3,6.591982E-2,3.4963395E-2,1.554412E-1,4.1735683E-2,-1.7246878E-1,-6.086363E-2,1.11066E-1,2.3772411E-2,-8.4870905E-2,8.555238E-3,-6.8734E-2,1.5945876E-2,-4.7438245E-2,5.3231172E-2,1.2955225E-1,-1.1110416E-3,1.0502575E-1,1.4519054E-1,3.785545E-1,-1.6024405E-1,8.2309954E-2,-4.1631582E-1,-1.528571E-1,-6.881981E-2,1.4100724E-1,3.9176885E-2,2.5777176E-1,-4.816126E-2,9.733434E-2,-1.5386318E-1,-4.5676123E-2,-3.1363259E-3,1.1786816E-1,-7.943029E-2,6.7535155E-2,5.1072434E-2,-4.9942043E-3,-3.549587E-2,-1.7467186E-1,9.727291E-2,2.9668884E-2,4.3430296E-1,1.1580511E-1,-8.773352E-3,2.9210532E-1,7.67425E-2,2.6180586E-1,1.2953445E-1,2.7240658E-1,3.0939063E-1,4.8535433E-1,-6.356524E-2,7.32756E-2,1.1108233E-2,5.7196707E-2,-1.300389E-1,-8.88682E-3,-4.9091246E-2,2.2410467E-2,-2.8500462E-2,-3.812891E-3,2.6771447E-2,1.09222755E-1,-1.2426136E-1,1.6214192E-2,9.72473E-2,1.6630607E-2,-6.927441E-2,-5.4058577E-3,-1.8195946E-3,4.2288367E-2,-5.011383E-2,1.731067E-2,-2.32331E-2,-1.2703618E-3,-4.9143224E-3,2.0000022E-2,7.797803E-2,2.3042616E-2,-2.8830087E-2,-9.695846E-4,8.884127E-2,6.3319444E-3,1.1782826E-2,3.7825707E-2,-1.1381272E-2,4.671487E-3,-2.1726301E-2,-4.1576363E-3,-7.45307E-2,-2.8363278E-2,2.4500731E-2,6.6199295E-2,6.9579724E-3,5.2109793E-2,1.5325506E-1,4.8328336E-2,3.843417E-2,-4.0639475E-2,-9.802049E-3,2.334232E-2,-1.0542997E-2,1.1463531E-1,1.5918039E-2,7.3788255E-2,8.9877054E-2,-5.8925953E-2,4.3430224E-2,5.8122845E-3,9.5694505E-2,3.9231323E-2,3.0775558E-2,1.0466803E-1,1.5457723E-1,3.359288E-2],"categories":[],"categories_nodes":[],"categories_segments":[],"categories_sizes":[],"default_left":[0,0,0,0,0,0,0,0,0,0,0,0,0,0,0,0,0,0,0,0,0,0,0,0,0,0,0,0,0,0,0,0,0,0,0,0,0,0,0,0,0,0,0,0,0,0,0,0,0,0,0,0,0,0,0,0,0,0,0,0,0,0,0,0,0,0,0,0,0,0,0,0,0,0,0,0,0,0,0,0,0,0,0,0,0,0,0,0,0,0,0,0,0,0,0,0,0,0,0,0,0,0,0,0,0,0,0,0,0,0,0,0,0,0,0,0,0,0,0,0,0,0,0,0,0,0,0],"id":7,"left_children":[1,3,5,7,9,11,13,15,17,19,21,23,25,27,29,31,33,35,37,39,41,43,45,47,49,51,53,55,57,59,61,63,65,67,69,71,73,75,77,79,81,83,85,87,89,91,93,95,97,99,101,103,105,107,109,111,113,115,117,119,121,123,125,-1,-1,-1,-1,-1,-1,-1,-1,-1,-1,-1,-1,-1,-1,-1,-1,-1,-1,-1,-1,-1,-1,-1,-1,-1,-1,-1,-1,-1,-1,-1,-1,-1,-1,-1,-1,-1,-1,-1,-1,-1,-1,-1,-1,-1,-1,-1,-1,-1,-1,-1,-1,-1,-1,-1,-1,-1,-1,-1,-1,-1,-1,-1,-1],"loss_changes":[3.633188E2,1.0948042E2,1.14771576E2,5.8734406E1,6.324184E1,1.10077065E2,4.9438858E1,5.8271393E1,1.9106052E1,3.478518E1,3.6553455E1,7.079478E1,3.0658417E1,1.3505507E1,2.144519E1,1.1576504E1,6.094922E1,1.3038996E1,7.3977823E0,1.8042477E1,5.8889847E1,4.116302E1,1.1016483E1,6.702553E1,3.3188206E1,3.285901E1,2.6400154E1,7.929609E0,8.03331E0,1.786908E1,2.8954582E0,4.989071E0,5.760732E0,6.280548E0,2.8984283E1,1.1465317E1,3.5234752E0,3.2085104E0,3.0824432E0,9.493214E0,7.6047974E0,2.2016052E1,1.8287123E1,2.6901693E1,1.8131626E1,8.897682E0,5.8350887E0,3.0110199E1,3.867974E1,1.595624E1,1.1054611E1,2.1231728E1,1.9238855E1,5.6091995E0,1.8705582E1,7.119697E0,2.6610327E0,6.158599E0,4.8573895E0,1.3432297E1,6.4505386E0,2.0311317E0,1.732132E0,0E0,0E0,0E0,0E0,0E0,0E0,0E0,0E0,0E0,0E0,0E0,0E0,0E0,0E0,0E0,0E0,0E0,0E0,0E0,0E0,0E0,0E0,0E0,0E0,0E0,0E0,0E0,0E0,0E0,0E0,0E0,0E0,0E0,0E0,0E0,0E0,0E0,0E0,0E0,0E0,0E0,0E0,0E0,0E0,0E0,0E0,0E0,0E0,0E0,0E0,0E0,0E0,0E0,0E0,0E0,0E0,0E0,0E0,0E0,0E0,0E0,0E0,0E0,0E0],"parents":[2147483647,0,0,1,1,2,2,3,3,4,4,5,5,6,6,7,7,8,8,9,9,10,10,11,11,12,12,13,13,14,14,15,15,16,16,17,17,18,18,19,19,20,20,21,21,22,22,23,23,24,24,25,25,26,26,27,27,28,28,29,29,30,30,31,31,32,32,33,33,34,34,35,35,36,36,37,37,38,38,39,39,40,40,41,41,42,42,43,43,44,44,45,45,46,46,47,47,48,48,49,49,50,50,51,51,52,52,53,53,54,54,55,55,56,56,57,57,58,58,59,59,60,60,61,61,62,62],"right_children":[2,4,6,8,10,12,14,16,18,20,22,24,26,28,30,32,34,36,38,40,42,44,46,48,50,52,54,56,58,60,62,64,66,68,70,72,74,76,78,80,82,84,86,88,90,92,94,96,98,100,102,104,106,108,110,112,114,116,118,120,122,124,126,-1,-1,-1,-1,-1,-1,-1,-1,-1,-1,-1,-1,-1,-1,-1,-1,-1,-1,-1,-1,-1,-1,-1,-1,-1,-1,-1,-1,-1,-1,-1,-1,-1,-1,-1,-1,-1,-1,-1,-1,-1,-1,-1,-1,-1,-1,-1,-1,-1,-1,-1,-1,-1,-1,-1,-1,-1,-1,-1,-1,-1,-1,-1,-1],"split_conditions":[8.299E-3,-1.9310701E1,6.2256E4,1.1806232E1,1E0,1.564872E2,1.2035842E1,3.2E1,1.1E1,1.1E1,3.2E1,2.4E1,2.66667E-1,8.039054E0,4.11E2,1.8E1,1.386E-3,8.62935E-1,8.66268E-1,1.9385E4,1.29032E-1,1.4898565E1,5.8943333E1,7E0,9.9E1,6E0,2E0,4.1E1,1.15385E-1,1.9044619E1,8.82E2,1.6802462E1,1E1,5E0,3.84615E-1,3.7959694E1,1E0,-4.20031E1,9.239775E0,1.87E2,1.1660257E1,1E0,2.2774582E1,1.8920353E1,3E0,3E0,1.065E3,5.83333E-1,4.658629E0,2E0,3.443E3,2.9E1,3E0,4.6E1,6.4055E4,6.5431E4,5.4369E4,6.5475E4,2.019481E1,2.3E1,1E1,1.4762333E1,4E1,-6.356524E-2,7.32756E-2,1.1108233E-2,5.7196707E-2,-1.300389E-1,-8.88682E-3,-4.9091246E-2,2.2410467E-2,-2.8500462E-2,-3.812891E-3,2.6771447E-2,1.09222755E-1,-1.2426136E-1,1.6214192E-2,9.72473E-2,1.6630607E-2,-6.927441E-2,-5.4058577E-3,-1.8195946E-3,4.2288367E-2,-5.011383E-2,1.731067E-2,-2.32331E-2,-1.2703618E-3,-4.9143224E-3,2.0000022E-2,7.797803E-2,2.3042616E-2,-2.8830087E-2,-9.695846E-4,8.884127E-2,6.3319444E-3,1.1782826E-2,3.7825707E-2,-1.1381272E-2,4.671487E-3,-2.1726301E-2,-4.1576363E-3,-7.45307E-2,-2.8363278E-2,2.4500731E-2,6.6199295E-2,6.9579724E-3,5.2109793E-2,1.5325506E-1,4.8328336E-2,3.843417E-2,-4.0639475E-2,-9.802049E-3,2.334232E-2,-1.0542997E-2,1.1463531E-1,1.5918039E-2,7.3788255E-2,8.9877054E-2,-5.8925953E-2,4.3430224E-2,5.8122845E-3,9.5694505E-2,3.9231323E-2,3.0775558E-2,1.0466803E-1,1.5457723E-1,3.359288E-2],"split_indices":[54,122,129,107,128,74,109,14,134,10,132,132,48,72,133,131,64,103,104,129,47,108,135,13,131,132,132,128,49,71,134,109,10,0,6,105,38,112,81,129,17,133,17,107,132,2,129,47,83,2,129,128,133,126,130,129,130,129,107,132,132,109,128,0,0,0,0,0,0,0,0,0,0,0,0,0,0,0,0,0,0,0,0,0,0,0,0,0,0,0,0,0,0,0,0,0,0,0,0,0,0,0,0,0,0,0,0,0,0,0,0,0,0,0,0,0,0,0,0,0,0,0,0,0,0,0,0],"split_type":[0,0,0,0,0,0,0,0,0,0,0,0,0,0,0,0,0,0,0,0,0,0,0,0,0,0,0,0,0,0,0,0,0,0,0,0,0,0,0,0,0,0,0,0,0,0,0,0,0,0,0,0,0,0,0,0,0,0,0,0,0,0,0,0,0,0,0,0,0,0,0,0,0,0,0,0,0,0,0,0,0,0,0,0,0,0,0,0,0,0,0,0,0,0,0,0,0,0,0,0,0,0,0,0,0,0,0,0,0,0,0,0,0,0,0,0,0,0,0,0,0,0,0,0,0,0,0],"sum_hessian":[2.536144E5,8.792698E4,1.6568744E5,2.2979844E4,6.4947133E4,1.5094519E5,1.4742244E4,1.4167176E4,8.812668E3,2.5187057E4,3.976008E4,1.1296632E5,3.7978867E4,5.3424634E3,9.399781E3,1.4099895E3,1.2757186E4,8.11127E3,7.0139856E2,3.407772E3,2.1779283E4,3.2206664E4,7.553411E3,9.11213E4,2.1845021E4,3.1666281E4,6.3125884E3,3.5272834E3,1.8151802E3,8.988468E3,4.11313E2,2.3536873E2,1.1746207E3,9.481308E2,1.1809055E4,7.8043423E3,3.0692755E2,4.7158057E2,2.2981801E2,1.7231289E3,1.6846431E3,7.8892954E3,1.3889988E4,2.9095705E4,3.11096E3,7.004053E3,5.4935815E2,3.4031953E4,5.7089348E4,1.9971719E4,1.8733026E3,1.1035679E4,2.0630602E4,2.7114618E2,6.0414424E3,3.4384014E3,8.8882E1,1.5390278E3,2.7615234E2,8.0052993E3,9.8316876E2,2.5200847E2,1.5930452E2,2.0914444E2,2.6224289E1,8.29343E2,3.452777E2,9.077571E2,4.0373714E1,1.1275185E4,5.338704E2,5.3208657E3,2.4834766E3,2.5025027E2,5.6677284E1,1.4123309E1,4.5745724E2,1.725898E2,5.722821E1,2.4301785E2,1.4801111E3,5.0013608E2,1.184507E3,7.4267363E3,4.6255954E2,7.8622314E3,6.027757E3,2.4456066E4,4.639639E3,6.963564E2,2.4146035E3,5.746602E3,1.2574512E3,9.1830574E1,4.5752756E2,2.9408748E4,4.6232036E3,2.1941504E4,3.5147844E4,7.378118E3,1.2593602E4,9.742905E2,8.99012E2,9.798272E3,1.2374065E3,1.9744064E4,8.865371E2,2.111239E2,6.0022266E1,5.759782E3,2.8166003E2,2.695068E3,7.433334E2,1.9305305E1,6.95767E1,1.351234E3,1.8779381E2,2.5543585E2,2.0716503E1,7.032527E3,9.7277234E2,7.3892883E2,2.4423993E2,4.0993847E1,2.1101463E2,1.4714035E2,1.216416E1],"tree_param":{"num_deleted":"0","num_feature":"136","num_nodes":"127","size_leaf_vector":"1"}},{"base_weights":[-4.95701E-10,-4.0482156E-2,3.078607E-2,-4.888015E-2,8.647421E-2,2.6570596E-2,1.7160092E-1,-6.260468E-2,2.3417933E-2,2.3449728E-2,1.3055591E-1,-5.5608638E-3,4.4517316E-2,1.13064975E-1,2.3096271E-1,-5.7492837E-2,-2.5336957E-1,5.1151775E-3,9.263722E-2,5.406853E-2,-6.1163723E-2,8.746588E-2,2.0935404E-1,2.4017282E-2,-3.8127065E-2,2.8188659E-2,7.326238E-2,7.875494E-2,1.6118726E-1,2.0267029E-1,3.0500725E-1,-6.3320465E-2,9.083651E-2,-3.4406188E-1,-1.3793705E-1,-2.659613E-2,4.8284184E-2,2.1407668E-1,4.1180313E-2,2.2588725E-1,3.444191E-2,-1.2952334E-1,1.8331997E-2,-6.573201E-2,1.0891548E-1,1.121785E-1,2.669602E-1,7.577471E-2,2.5854877E-3,-6.986208E-2,-5.072719E-3,1.9890938E-2,1.0041787E-1,5.7116758E-2,1.2838967E-1,1.1883101E-1,1.1925684E-2,7.890455E-2,1.9524705E-1,9.841199E-2,2.2307277E-1,8.1431024E-2,3.276061E-1,-2.8212879E-2,-1.2289979E-2,1.3189308E-2,4.7767498E-2,-1.12392105E-1,-9.2862155E-3,-8.3336055E-2,-1.9350158E-2,-1.9412687E-2,7.279877E-3,-2.1199351E-2,2.1646935E-2,6.513015E-3,7.6155715E-2,1.925722E-2,-1.7451612E-2,1.6842376E-2,9.910873E-2,-2.4366444E-3,2.4946686E-2,-9.2714645E-2,-2.3846542E-2,2.8994799E-2,-3.2199208E-2,-8.597251E-3,-9.26032E-2,-4.7493223E-3,4.417551E-2,-2.9673632E-2,4.6495218E-2,9.012668E-2,1.3455045E-2,8.701303E-4,3.163751E-2,-5.7202703E-3,1.2999951E-2,-8.012046E-3,-4.1999537E-2,1.4587752E-2,-1.0319171E-2,8.1164725E-3,-1.3538089E-2,2.5860958E-2,6.714948E-2,2.293409E-2,2.6019935E-3,4.174449E-2,-7.9564145E-3,4.9396016E-2,1.7408373E-2,-9.170009E-3,3.0827934E-2,-2.3354832E-2,4.426021E-2,7.462457E-2,4.470735E-2,-6.24228E-2,3.986839E-2,6.8703294E-2,-1.884078E-2,-1.416223E-2,6.648986E-2,6.732894E-2,1.1192727E-1],"categories":[],"categories_nodes":[],"categories_segments":[],"categories_sizes":[],"default_left":[0,0,0,0,0,0,0,0,0,0,0,0,0,0,0,0,0,0,0,0,0,0,0,0,0,0,0,0,0,0,0,0,0,0,0,0,0,0,0,0,0,0,0,0,0,0,0,0,0,0,0,0,0,0,0,0,0,0,0,0,0,0,0,0,0,0,0,0,0,0,0,0,0,0,0,0,0,0,0,0,0,0,0,0,0,0,0,0,0,0,0,0,0,0,0,0,0,0,0,0,0,0,0,0,0,0,0,0,0,0,0,0,0,0,0,0,0,0,0,0,0,0,0,0,0,0,0],"id":8,"left_children":[1,3,5,7,9,11,13,15,17,19,21,23,25,27,29,31,33,35,37,39,41,43,45,47,49,51,53,55,57,59,61,63,65,67,69,71,73,75,77,79,81,83,85,87,89,91,93,95,97,99,101,103,105,107,109,111,113,115,117,119,121,123,125,-1,-1,-1,-1,-1,-1,-1,-1,-1,-1,-1,-1,-1,-1,-1,-1,-1,-1,-1,-1,-1,-1,-1,-1,-1,-1,-1,-1,-1,-1,-1,-1,-1,-1,-1,-1,-1,-1,-1,-1,-1,-1,-1,-1,-1,-1,-1,-1,-1,-1,-1,-1,-1,-1,-1,-1,-1,-1,-1,-1,-1,-1,-1,-1],"loss_changes":[3.1408258E2,1.1607268E2,8.4969925E1,1.01321106E2,1.8763222E1,8.0150055E1,1.443132E1,8.3673004E1,2.063988E1,7.208947E0,1.3476738E1,4.798192E1,4.185637E1,3.4493847E0,4.263733E0,7.2253815E1,2.339598E1,1.764155E1,2.1280842E1,6.8809495E0,4.0210047E0,8.456018E0,7.8314667E0,2.8955774E1,2.4869598E1,3.408537E1,2.8747421E1,3.2822804E0,2.427847E0,3.1622238E0,2.8475266E0,5.5227142E1,1.0122547E1,1.1988861E1,1.0118208E1,1.4403772E1,1.5502074E1,7.751034E0,5.477251E0,3.6922169E0,3.8045163E0,3.5479617E0,3.3838122E0,2.841015E0,1.078998E1,4.7536483E0,6.534031E0,1.6534836E1,1.6289246E1,3.6606857E1,1.8290104E1,2.3763649E1,1.0261383E1,2.3400276E1,1.2199463E1,2.1255484E0,1.781446E0,2.7752223E0,1.4860325E0,2.6357937E0,2.1383247E0,9.7629416E-1,2.3392792E0,0E0,0E0,0E0,0E0,0E0,0E0,0E0,0E0,0E0,0E0,0E0,0E0,0E0,0E0,0E0,0E0,0E0,0E0,0E0,0E0,0E0,0E0,0E0,0E0,0E0,0E0,0E0,0E0,0E0,0E0,0E0,0E0,0E0,0E0,0E0,0E0,0E0,0E0,0E0,0E0,0E0,0E0,0E0,0E0,0E0,0E0,0E0,0E0,0E0,0E0,0E0,0E0,0E0,0E0,0E0,0E0,0E0,0E0,0E0,0E0,0E0,0E0,0E0,0E0],"parents":[2147483647,0,0,1,1,2,2,3,3,4,4,5,5,6,6,7,7,8,8,9,9,10,10,11,11,12,12,13,13,14,14,15,15,16,16,17,17,18,18,19,19,20,20,21,21,22,22,23,23,24,24,25,25,26,26,27,27,28,28,29,29,30,30,31,31,32,32,33,33,34,34,35,35,36,36,37,37,38,38,39,39,40,40,41,41,42,42,43,43,44,44,45,45,46,46,47,47,48,48,49,49,50,50,51,51,52,52,53,53,54,54,55,55,56,56,57,57,58,58,59,59,60,60,61,61,62,62],"right_children":[2,4,6,8,10,12,14,16,18,20,22,24,26,28,30,32,34,36,38,40,42,44,46,48,50,52,54,56,58,60,62,64,66,68,70,72,74,76,78,80,82,84,86,88,90,92,94,96,98,100,102,104,106,108,110,112,114,116,118,120,122,124,126,-1,-1,-1,-1,-1,-1,-1,-1,-1,-1,-1,-1,-1,-1,-1,-1,-1,-1,-1,-1,-1,-1,-1,-1,-1,-1,-1,-1,-1,-1,-1,-1,-1,-1,-1,-1,-1,-1,-1,-1,-1,-1,-1,-1,-1,-1,-1,-1,-1,-1,-1,-1,-1,-1,-1,-1,-1,-1,-1,-1,-1,-1,-1,-1],"split_conditions":[6.6667E-2,7.166726E0,1.4E1,7.5E-1,-9.473779E0,1.6E1,1.1E1,2.535E3,6E0,-1.2687755E1,2.596611E1,6E0,2.0591328E1,7E0,3.04E2,1E0,7.71836E-1,1.6442E4,3.8E1,1.4E-5,9.350706E0,1.339E3,4.5496E4,2.8E1,1E0,2.235E3,1.8507E4,4.1064E4,4E-1,9.363289E0,8.6957E-2,3.84615E-1,1.8E1,3.84615E-1,9.548572E2,1.861368E1,4.161848E0,1.0936912E1,1.6474771E1,-1.5160361E1,1.1112302E1,9.404237E0,-7.689846E0,1.8E1,4.843237E0,6.630815E0,-7.438976E0,1.2035842E1,2.9367E4,8.3333E-2,3.1E1,8E1,3.0152512E1,-7.334451E0,1.21E2,5E0,9.6E0,3.3527E4,9.117E3,1.1876E-2,1.72E2,6.19E4,4.11E2,-2.8212879E-2,-1.2289979E-2,1.3189308E-2,4.7767498E-2,-1.12392105E-1,-9.2862155E-3,-8.3336055E-2,-1.9350158E-2,-1.9412687E-2,7.279877E-3,-2.1199351E-2,2.1646935E-2,6.513015E-3,7.6155715E-2,1.925722E-2,-1.7451612E-2,1.6842376E-2,9.910873E-2,-2.4366444E-3,2.4946686E-2,-9.2714645E-2,-2.3846542E-2,2.8994799E-2,-3.2199208E-2,-8.597251E-3,-9.26032E-2,-4.7493223E-3,4.417551E-2,-2.9673632E-2,4.6495218E-2,9.012668E-2,1.3455045E-2,8.701303E-4,3.163751E-2,-5.7202703E-3,1.2999951E-2,-8.012046E-3,-4.1999537E-2,1.4587752E-2,-1.0319171E-2,8.1164725E-3,-1.3538089E-2,2.5860958E-2,6.714948E-2,2.293409E-2,2.6019935E-3,4.174449E-2,-7.9564145E-3,4.9396016E-2,1.7408373E-2,-9.170009E-3,3.0827934E-2,-2.3354832E-2,4.426021E-2,7.462457E-2,4.470735E-2,-6.24228E-2,3.986839E-2,6.8703294E-2,-1.884078E-2,-1.416223E-2,6.648986E-2,6.732894E-2,1.1192727E-1],"split_indices":[52,86,133,38,121,24,134,14,128,112,71,132,107,127,134,133,104,129,126,65,79,129,130,126,128,127,129,130,135,18,47,7,133,8,94,18,19,108,83,121,86,107,124,12,15,19,117,109,129,48,126,132,71,124,132,13,135,130,129,45,132,129,133,0,0,0,0,0,0,0,0,0,0,0,0,0,0,0,0,0,0,0,0,0,0,0,0,0,0,0,0,0,0,0,0,0,0,0,0,0,0,0,0,0,0,0,0,0,0,0,0,0,0,0,0,0,0,0,0,0,0,0,0,0,0,0,0],"split_type":[0,0,0,0,0,0,0,0,0,0,0,0,0,0,0,0,0,0,0,0,0,0,0,0,0,0,0,0,0,0,0,0,0,0,0,0,0,0,0,0,0,0,0,0,0,0,0,0,0,0,0,0,0,0,0,0,0,0,0,0,0,0,0,0,0,0,0,0,0,0,0,0,0,0,0,0,0,0,0,0,0,0,0,0,0,0,0,0,0,0,0,0,0,0,0,0,0,0,0,0,0,0,0,0,0,0,0,0,0,0,0,0,0,0,0,0,0,0,0,0,0,0,0,0,0,0,0],"sum_hessian":[2.5201275E5,1.0886299E5,1.4314975E5,1.0210922E5,6.753772E3,1.389901E5,4.159658E3,8.581825E4,1.6290968E4,2.7802812E3,3.9734907E3,4.9810688E4,8.917941E4,2.0958604E3,2.063798E3,8.35799E4,2.2383535E3,1.2885022E4,3.4059453E3,2.0417871E3,7.384941E2,2.570142E3,1.4033485E3,2.6102992E4,2.3707695E4,5.6874043E4,3.2305365E4,1.2250591E3,8.708012E2,1.4959374E3,5.678607E2,8.042086E4,3.1590376E3,1.2523972E3,9.859564E2,7.428524E3,5.4564985E3,1.01272675E3,2.3932185E3,2.0824284E2,1.8335443E3,3.9671948E2,3.4177463E2,3.154024E2,2.2547397E3,5.2339075E2,8.799578E2,7.6429233E3,1.8460068E4,1.2094663E4,1.1613031E4,5.1014727E4,5.8593174E3,2.4988732E4,7.316634E3,7.653293E2,4.5972977E2,2.5590198E2,6.1489923E2,2.4578418E2,1.2501532E3,5.2552135E1,5.153086E2,3.386907E4,4.655179E4,1.8753508E3,1.2836866E3,1.1407899E3,1.1160732E2,3.385161E2,6.474403E2,4.2463354E3,3.1821882E3,9.1171643E2,4.544782E3,1.7378726E2,8.3893945E2,1.9434592E3,4.4975937E2,7.99239E1,1.2831894E2,9.789824E2,8.545619E2,8.53405E1,3.11379E2,2.1069383E2,1.3108078E2,2.7461322E2,4.0789204E1,5.3016455E2,1.7245752E3,8.801996E1,4.353708E2,7.644386E2,1.1551926E2,2.2124321E3,5.430491E3,1.2054772E4,6.405296E3,7.488396E3,4.606267E3,4.1015977E3,7.511434E3,4.5952098E4,5.0626284E3,5.2556724E3,6.0364484E2,1.7861104E4,7.1276284E3,6.8415854E3,4.750483E2,4.3545456E2,3.2987473E2,3.1366168E2,1.460681E2,7.788149E1,1.780205E2,2.8297775E2,3.3192148E2,2.4347235E1,2.2143695E2,1.2249083E3,2.524488E1,2.7752165E1,2.479997E1,1.5948094E2,3.5582764E2],"tree_param":{"num_deleted":"0","num_feature":"136","num_nodes":"127","size_leaf_vector":"1"}},{"base_weights":[-1.41462E-10,-3.716492E-2,2.792082E-2,5.8473546E-2,-4.6554126E-2,1.4306073E-2,6.3473165E-2,2.8816538E-2,1.718532E-1,-7.9031825E-2,-1.3305831E-2,-5.964012E-2,2.2898812E-2,6.853627E-2,-6.3714266E-2,6.405216E-2,-7.33942E-2,1.8374063E-1,-1.942778E-1,-1.4304532E-1,-5.337379E-2,-2.3047596E-2,9.911754E-2,-3.402344E-2,-1.11484416E-1,1.848759E-2,1.3380323E-1,6.0412496E-2,1.4578311E-1,-2.1782393E-2,-1.7168306E-1,8.169703E-2,-1.18443005E-1,-1.4984766E-1,8.364938E-3,1.5193799E-1,3.058927E-1,-2.3025726E-1,1.4850946E-1,-2.0380746E-1,-9.6258245E-2,2.2052577E-2,-6.795177E-2,-8.580354E-3,-7.960836E-2,2.3770028E-1,6.729181E-2,-5.0486963E-2,1.08914925E-2,-9.75586E-2,-3.1857E-1,1.9823583E-3,4.490447E-2,3.3741716E-2,2.0438111E-1,5.5825982E-2,1.754164E-1,2.805913E-1,1.29259E-1,6.858921E-3,-1.6098645E-1,-1.2800594E-1,-5.109454E-1,4.3016054E-2,1.0868413E-2,-2.9628577E-2,-1.6906522E-1,-5.1481187E-2,2.7409222E-2,-5.79782E-2,1.595942E-2,6.0981516E-2,3.059429E-2,1.2517703E-1,6.971318E-2,-8.930431E-2,5.2173976E-2,-6.4819805E-2,3.331685E-2,-3.5478897E-2,-5.237408E-3,-1.20731825E-2,7.078415E-2,-2.592717E-2,-7.0094556E-4,-4.4053947E-3,3.975853E-2,-2.7758954E-2,-6.071807E-4,5.6105632E-2,1.2049526E-1,4.5092974E-2,1.0532501E-2,2.5785342E-2,-1.7367946E-2,-1.0899786E-2,1.3582257E-2,-4.408798E-2,-2.0112466E-2,1.1684548E-1,-1.0107904E-1,-7.444234E-3,5.929439E-3,3.5022426E-2,1.0157361E-2,1.7212034E-3,3.9123762E-2,6.2499616E-2,-9.2651166E-2,1.6502972E-3,1.991693E-2,8.299218E-2,2.2214798E-2,4.391895E-2,1.1267525E-1,4.1456632E-2,-3.9072406E-2,-3.388593E-3,6.2450636E-2,-5.578879E-2,2.1378917E-1,-7.3507994E-2,-1.281887E-2,-1.6925575E-1,6.2212154E-2],"categories":[],"categories_nodes":[],"categories_segments":[],"categories_sizes":[],"default_left":[0,0,0,0,0,0,0,0,0,0,0,0,0,0,0,0,0,0,0,0,0,0,0,0,0,0,0,0,0,0,0,0,0,0,0,0,0,0,0,0,0,0,0,0,0,0,0,0,0,0,0,0,0,0,0,0,0,0,0,0,0,0,0,0,0,0,0,0,0,0,0,0,0,0,0,0,0,0,0,0,0,0,0,0,0,0,0,0,0,0,0,0,0,0,0,0,0,0,0,0,0,0,0,0,0,0,0,0,0,0,0,0,0,0,0,0,0,0,0,0,0,0,0,0,0],"id":9,"left_children":[1,3,5,7,9,11,13,15,17,19,21,23,25,27,29,31,33,35,37,39,41,43,45,47,49,51,53,55,57,59,61,63,65,67,69,71,73,75,-1,77,79,81,83,85,87,89,91,93,95,97,99,101,103,105,107,109,111,113,115,117,119,121,123,-1,-1,-1,-1,-1,-1,-1,-1,-1,-1,-1,-1,-1,-1,-1,-1,-1,-1,-1,-1,-1,-1,-1,-1,-1,-1,-1,-1,-1,-1,-1,-1,-1,-1,-1,-1,-1,-1,-1,-1,-1,-1,-1,-1,-1,-1,-1,-1,-1,-1,-1,-1,-1,-1,-1,-1,-1,-1,-1,-1,-1,-1],"loss_changes":[2.59878E2,9.647708E1,6.921936E1,3.2291744E1,1.05640915E2,6.570692E1,2.5504837E1,2.7428675E1,8.702446E0,8.1276764E1,5.2948505E1,1.4293777E1,4.5320953E1,2.3890121E1,6.8621655E0,1.8245531E1,1.2206248E1,7.447891E0,1.6790543E0,4.0235565E1,3.884955E1,3.6404144E1,1.6987564E1,5.329686E0,1.0234779E1,3.8849316E1,2.50197E1,1.816748E1,8.034927E0,4.360737E0,6.218605E0,1.44809265E1,4.32168E0,5.311163E0,8.547977E0,3.9097137E0,3.1575623E0,1.7047224E0,0E0,2.3796768E1,1.3873016E1,7.627065E1,3.5886536E1,3.0519299E1,9.084194E0,5.9043655E0,8.375211E0,5.3341913E0,3.1417093E0,5.020849E0,3.0413952E0,2.6131664E1,2.718534E1,3.9705398E0,4.2775574E0,1.7618263E1,1.3536015E1,4.9774494E0,7.501686E0,3.3201463E0,4.2047367E0,3.752092E0,1.9540367E0,0E0,0E0,0E0,0E0,0E0,0E0,0E0,0E0,0E0,0E0,0E0,0E0,0E0,0E0,0E0,0E0,0E0,0E0,0E0,0E0,0E0,0E0,0E0,0E0,0E0,0E0,0E0,0E0,0E0,0E0,0E0,0E0,0E0,0E0,0E0,0E0,0E0,0E0,0E0,0E0,0E0,0E0,0E0,0E0,0E0,0E0,0E0,0E0,0E0,0E0,0E0,0E0,0E0,0E0,0E0,0E0,0E0,0E0,0E0,0E0,0E0,0E0],"parents":[2147483647,0,0,1,1,2,2,3,3,4,4,5,5,6,6,7,7,8,8,9,9,10,10,11,11,12,12,13,13,14,14,15,15,16,16,17,17,18,18,19,19,20,20,21,21,22,22,23,23,24,24,25,25,26,26,27,27,28,28,29,29,30,30,31,31,32,32,33,33,34,34,35,35,36,36,37,37,39,39,40,40,41,41,42,42,43,43,44,44,45,45,46,46,47,47,48,48,49,49,50,50,51,51,52,52,53,53,54,54,55,55,56,56,57,57,58,58,59,59,60,60,61,61,62,62],"right_children":[2,4,6,8,10,12,14,16,18,20,22,24,26,28,30,32,34,36,38,40,42,44,46,48,50,52,54,56,58,60,62,64,66,68,70,72,74,76,-1,78,80,82,84,86,88,90,92,94,96,98,100,102,104,106,108,110,112,114,116,118,120,122,124,-1,-1,-1,-1,-1,-1,-1,-1,-1,-1,-1,-1,-1,-1,-1,-1,-1,-1,-1,-1,-1,-1,-1,-1,-1,-1,-1,-1,-1,-1,-1,-1,-1,-1,-1,-1,-1,-1,-1,-1,-1,-1,-1,-1,-1,-1,-1,-1,-1,-1,-1,-1,-1,-1,-1,-1,-1,-1,-1,-1,-1,-1],"split_conditions":[6.6667E-2,1.1E1,3.7E1,1E1,2E0,2.77E2,1.75E2,1E0,4E0,2.3973E-2,6.679819E0,-6.727937E0,6.5121E4,7.5E-1,2.12E2,1.09E2,9.898967E0,1E0,2.7327917E1,-1.0373387E1,5E0,2.9E1,2.7E1,2.4384317E1,6.7E1,1.7781717E1,1.0319232E1,3.6E1,3E0,1.6864857E1,9.3025E2,7E0,5.9543E4,6.2412E4,1.8055E4,3.2E1,-1.490477E1,2.0762373E1,1.4850946E-1,2E0,5E-6,2E0,1.849853E1,7.5E-1,1.5E1,1.0294351E1,-1.5179017E1,2.16E2,1.2430443E1,6.5571E-1,4.525E-3,2.3102E-2,5E0,6.5505E4,1.35E2,7.357742E0,2E0,1.6E1,6.4571E4,2.5358398E1,3.32E2,1E0,1.174E3,4.3016054E-2,1.0868413E-2,-2.9628577E-2,-1.6906522E-1,-5.1481187E-2,2.7409222E-2,-5.79782E-2,1.595942E-2,6.0981516E-2,3.059429E-2,1.2517703E-1,6.971318E-2,-8.930431E-2,5.2173976E-2,-6.4819805E-2,3.331685E-2,-3.5478897E-2,-5.237408E-3,-1.20731825E-2,7.078415E-2,-2.592717E-2,-7.0094556E-4,-4.4053947E-3,3.975853E-2,-2.7758954E-2,-6.071807E-4,5.6105632E-2,1.2049526E-1,4.5092974E-2,1.0532501E-2,2.5785342E-2,-1.7367946E-2,-1.0899786E-2,1.3582257E-2,-4.408798E-2,-2.0112466E-2,1.1684548E-1,-1.0107904E-1,-7.444234E-3,5.929439E-3,3.5022426E-2,1.0157361E-2,1.7212034E-3,3.9123762E-2,6.2499616E-2,-9.2651166E-2,1.6502972E-3,1.991693E-2,8.299218E-2,2.2214798E-2,4.391895E-2,1.1267525E-1,4.1456632E-2,-3.9072406E-2,-3.388593E-3,6.2450636E-2,-5.578879E-2,2.1378917E-1,-7.3507994E-2,-1.281887E-2,-1.6925575E-1,6.2212154E-2],"split_indices":[52,10,24,10,128,129,132,12,12,49,78,120,129,46,132,131,109,128,72,114,13,132,126,72,131,107,105,128,132,87,44,13,130,130,130,126,116,15,0,133,65,125,107,6,134,19,117,130,15,103,45,60,13,129,132,82,132,128,130,108,134,127,127,0,0,0,0,0,0,0,0,0,0,0,0,0,0,0,0,0,0,0,0,0,0,0,0,0,0,0,0,0,0,0,0,0,0,0,0,0,0,0,0,0,0,0,0,0,0,0,0,0,0,0,0,0,0,0,0,0,0,0,0,0,0],"split_type":[0,0,0,0,0,0,0,0,0,0,0,0,0,0,0,0,0,0,0,0,0,0,0,0,0,0,0,0,0,0,0,0,0,0,0,0,0,0,0,0,0,0,0,0,0,0,0,0,0,0,0,0,0,0,0,0,0,0,0,0,0,0,0,0,0,0,0,0,0,0,0,0,0,0,0,0,0,0,0,0,0,0,0,0,0,0,0,0,0,0,0,0,0,0,0,0,0,0,0,0,0,0,0,0,0,0,0,0,0,0,0,0,0,0,0,0,0,0,0,0,0,0,0,0,0],"sum_hessian":[2.5044055E5,1.0743516E5,1.4300539E5,9.603962E3,9.7831195E4,1.0340711E5,3.9598285E4,7.6136846E3,1.9902771E3,4.9488402E4,4.834279E4,1.0764607E4,9.26425E4,3.8082742E4,1.5155448E3,5.662125E3,1.9515593E3,1.928172E3,6.2105156E1,1.4158985E4,3.5329418E4,4.4488543E4,3.8542483E3,7.2058145E3,3.5587935E3,8.909973E4,3.5427744E3,3.446044E4,3.6222988E3,1.0924655E3,4.2307938E2,5.163441E3,4.986844E2,1.00807227E3,9.4348706E2,1.5316472E3,3.965247E2,5.9657223E1,2.447933E0,6.1581147E3,8.00087E3,5.7222114E3,2.9607205E4,3.542787E4,9.060672E3,7.186167E2,3.1356316E3,5.2729106E3,1.9329037E3,3.335934E3,2.2285934E2,5.4838062E4,3.4261668E4,1.4659325E3,2.0768418E3,3.314025E4,1.3201931E3,3.9377676E2,3.2285222E3,9.068345E2,1.8563098E2,3.760442E2,4.7035168E1,2.1900073E3,2.9734336E3,4.7873816E2,1.9946224E1,9.249355E2,8.313676E1,1.7102678E2,7.724603E2,7.539014E2,7.7774585E2,1.5581477E2,2.4070992E2,5.1353844E1,8.303377E0,5.9276484E3,2.3046661E2,6.253967E3,1.7469031E3,4.432162E3,1.2900494E3,2.3102916E4,6.504289E3,3.3959688E4,1.4681829E3,7.766919E3,1.2937526E3,5.5056354E2,1.6805319E2,8.749656E2,2.260666E3,2.7094318E2,5.0019673E3,8.1434985E2,1.1185538E3,1.2723784E3,2.0635557E3,5.1218657E0,2.1773747E2,2.1874637E4,3.2963426E4,4.5650728E3,2.9696594E4,1.1374781E3,3.2845435E2,2.0615654E3,1.527658E1,5.749868E3,2.739038E4,6.5969696E2,6.604962E2,1.6426436E2,2.295124E2,3.1215723E3,1.0695E2,8.326863E2,7.41482E1,1.8123668E2,4.3943105E0,1.5772812E2,2.1831609E2,4.3989338E1,3.045828E0],"tree_param":{"num_deleted":"0","num_feature":"136","num_nodes":"125","size_leaf_vector":"1"}},{"base_weights":[-1.5140411E-9,-4.6443246E-2,1.8882882E-2,-9.4747916E-2,-2.4125027E-2,-8.673248E-4,4.1344084E-2,-1.3129643E-1,-3.9560094E-2,-4.8513707E-2,3.2630952E-3,-5.277319E-2,1.2201567E-2,1.7589614E-2,7.447141E-2,6.718303E-4,-1.6075979E-1,-5.347757E-2,6.807046E-2,-5.2608438E-2,1.2578908E-1,2.2446877E-1,-7.592676E-3,-1.795906E-2,-9.011284E-2,1.8010752E-1,9.278294E-3,-1.3201058E-2,4.0027477E-2,1.11907706E-1,4.3424394E-2,5.6479786E-2,-1.4477322E-1,-3.32309E-1,-1.3817976E-1,-7.705613E-2,-7.9899E-3,4.0562987E-2,2.4534915E-1,-8.41555E-2,-3.224605E-2,4.322978E-2,2.4605577E-1,2.0423155E-1,4.8961565E-1,-1.623796E-2,1.0917867E-1,3.849069E-2,-5.0845876E-2,-1.398562E-1,-5.87138E-2,2.0405355E-1,-1.8165584E-1,-1.2853221E-3,6.014888E-2,-1.8372044E-2,1.2597258E-1,3.48874E-2,2.2065337E-1,1.00596845E-1,2.39044E-1,5.168297E-3,6.749686E-2,-7.434529E-2,2.04225E-2,-8.687164E-3,-8.5648544E-2,8.73392E-2,-1.034531E-1,-4.8262566E-2,-1.1128572E-2,-3.0246708E-3,-2.8461618E-2,3.9619044E-3,-3.910884E-2,6.030295E-3,1.0140267E-1,1.1449752E-1,3.0595707E-2,2.079297E-3,-3.296435E-2,-2.1961544E-2,-1.1955622E-3,2.6185436E-2,-3.824605E-2,8.065486E-2,1.5607427E-3,-2.0274369E-2,6.678418E-2,1.7435117E-1,4.2768154E-2,-1.1358158E-2,5.425631E-3,2.8465515E-2,8.665692E-2,7.7479417E-3,7.544699E-2,-1.11711705E-2,-4.5440197E-2,-3.539674E-2,-7.232969E-2,-1.4326385E-2,-6.3753836E-2,7.45749E-2,2.8904786E-2,-1.3539842E-1,4.9596317E-2,-8.21703E-3,6.7154407E-3,2.4842045E-3,2.6335757E-2,-1.0834727E-2,4.0104305E-3,8.343729E-3,5.6075275E-2,1.2491178E-3,1.5596789E-2,4.1286923E-2,1.0292589E-1,2.765202E-2,7.832998E-2,6.619669E-2,1.2981726E-1,-2.7566173E-3,3.2720096E-2,1.5854256E-2,4.2891778E-2],"categories":[],"categories_nodes":[],"categories_segments":[],"categories_sizes":[],"default_left":[0,0,0,0,0,0,0,0,0,0,0,0,0,0,0,0,0,0,0,0,0,0,0,0,0,0,0,0,0,0,0,0,0,0,0,0,0,0,0,0,0,0,0,0,0,0,0,0,0,0,0,0,0,0,0,0,0,0,0,0,0,0,0,0,0,0,0,0,0,0,0,0,0,0,0,0,0,0,0,0,0,0,0,0,0,0,0,0,0,0,0,0,0,0,0,0,0,0,0,0,0,0,0,0,0,0,0,0,0,0,0,0,0,0,0,0,0,0,0,0,0,0,0,0,0,0,0],"id":10,"left_children":[1,3,5,7,9,11,13,15,17,19,21,23,25,27,29,31,33,35,37,39,41,43,45,47,49,51,53,55,57,59,61,63,65,67,69,71,73,75,77,79,81,83,85,87,89,91,93,95,97,99,101,103,105,107,109,111,113,115,117,119,121,123,125,-1,-1,-1,-1,-1,-1,-1,-1,-1,-1,-1,-1,-1,-1,-1,-1,-1,-1,-1,-1,-1,-1,-1,-1,-1,-1,-1,-1,-1,-1,-1,-1,-1,-1,-1,-1,-1,-1,-1,-1,-1,-1,-1,-1,-1,-1,-1,-1,-1,-1,-1,-1,-1,-1,-1,-1,-1,-1,-1,-1,-1,-1,-1,-1],"loss_changes":[2.1853937E2,7.765262E1,7.859219E1,4.590834E1,3.2910034E1,6.3950165E1,6.522876E1,5.3243713E1,1.3590548E1,1.8607494E1,5.5733517E1,2.4647774E1,3.6963608E1,3.3354057E1,4.0229523E1,2.0302647E1,4.3316162E1,8.614347E0,5.0567827E0,1.6354858E1,5.931814E0,5.725792E0,2.2336155E1,1.8221224E1,1.42812805E1,1.120071E1,3.977854E1,1.4648496E1,2.5920315E1,2.2542603E1,1.7427803E1,6.394934E0,1.1296004E1,1.0269897E1,2.2692337E1,6.3111553E0,7.117377E0,5.4748554E0,2.6845179E0,2.3405678E1,1.7915031E1,2.6892428E0,1.3348446E0,5.0637856E0,2.3407555E0,1.5288856E1,3.8896122E0,9.74036E0,8.486462E0,7.80764E0,9.446074E0,5.775158E0,7.6102524E0,3.787561E1,1.8245094E1,1.1052038E1,4.3571043E0,1.4268002E1,7.80608E0,1.9461502E1,4.4680023E0,1.0905417E1,1.28354225E1,0E0,0E0,0E0,0E0,0E0,0E0,0E0,0E0,0E0,0E0,0E0,0E0,0E0,0E0,0E0,0E0,0E0,0E0,0E0,0E0,0E0,0E0,0E0,0E0,0E0,0E0,0E0,0E0,0E0,0E0,0E0,0E0,0E0,0E0,0E0,0E0,0E0,0E0,0E0,0E0,0E0,0E0,0E0,0E0,0E0,0E0,0E0,0E0,0E0,0E0,0E0,0E0,0E0,0E0,0E0,0E0,0E0,0E0,0E0,0E0,0E0,0E0,0E0,0E0],"parents":[2147483647,0,0,1,1,2,2,3,3,4,4,5,5,6,6,7,7,8,8,9,9,10,10,11,11,12,12,13,13,14,14,15,15,16,16,17,17,18,18,19,19,20,20,21,21,22,22,23,23,24,24,25,25,26,26,27,27,28,28,29,29,30,30,31,31,32,32,33,33,34,34,35,35,36,36,37,37,38,38,39,39,40,40,41,41,42,42,43,43,44,44,45,45,46,46,47,47,48,48,49,49,50,50,51,51,52,52,53,53,54,54,55,55,56,56,57,57,58,58,59,59,60,60,61,61,62,62],"right_children":[2,4,6,8,10,12,14,16,18,20,22,24,26,28,30,32,34,36,38,40,42,44,46,48,50,52,54,56,58,60,62,64,66,68,70,72,74,76,78,80,82,84,86,88,90,92,94,96,98,100,102,104,106,108,110,112,114,116,118,120,122,124,126,-1,-1,-1,-1,-1,-1,-1,-1,-1,-1,-1,-1,-1,-1,-1,-1,-1,-1,-1,-1,-1,-1,-1,-1,-1,-1,-1,-1,-1,-1,-1,-1,-1,-1,-1,-1,-1,-1,-1,-1,-1,-1,-1,-1,-1,-1,-1,-1,-1,-1,-1,-1,-1,-1,-1,-1,-1,-1,-1,-1,-1,-1,-1,-1],"split_conditions":[5.671E-3,-1.756501E1,1.2982E4,1.2073381E1,8E0,1.1E1,2.1113075E1,1.63E2,4.0748E4,2.1E1,5E0,3E0,4E0,3.3493E-2,6E0,5E0,2.475E-3,3.7987705E1,1.44E2,7.6923E-2,9.5E1,7.30498E-1,3.1E1,6E0,4.4821E4,1.19048E-1,1.7478498E1,2E1,6.5475E4,2.2812094E1,2.0202E-2,-3.6321465E1,5.1378E4,1.790656E1,8.97159E0,6.875E-1,7.8968364E3,2.6757624E1,4.9738434E1,2.8E1,2.1790274E1,8.22E2,4.4E1,9.561673E0,2E0,4.363471E0,3.9E1,3.15789E-1,-1.897119E0,7.5758E-2,1.31313E-1,2.4E1,2.08E2,1.59091E-1,2E0,6E0,2.1666666E1,8.492442E0,3.877618E0,6.1E1,1.71429E-1,2.6757624E1,8E0,-7.434529E-2,2.04225E-2,-8.687164E-3,-8.5648544E-2,8.73392E-2,-1.034531E-1,-4.8262566E-2,-1.1128572E-2,-3.0246708E-3,-2.8461618E-2,3.9619044E-3,-3.910884E-2,6.030295E-3,1.0140267E-1,1.1449752E-1,3.0595707E-2,2.079297E-3,-3.296435E-2,-2.1961544E-2,-1.1955622E-3,2.6185436E-2,-3.824605E-2,8.065486E-2,1.5607427E-3,-2.0274369E-2,6.678418E-2,1.7435117E-1,4.2768154E-2,-1.1358158E-2,5.425631E-3,2.8465515E-2,8.665692E-2,7.7479417E-3,7.544699E-2,-1.11711705E-2,-4.5440197E-2,-3.539674E-2,-7.232969E-2,-1.4326385E-2,-6.3753836E-2,7.45749E-2,2.8904786E-2,-1.3539842E-1,4.9596317E-2,-8.21703E-3,6.7154407E-3,2.4842045E-3,2.6335757E-2,-1.0834727E-2,4.0104305E-3,8.343729E-3,5.6075275E-2,1.2491178E-3,1.5596789E-2,4.1286923E-2,1.0292589E-1,2.765202E-2,7.832998E-2,6.619669E-2,1.2981726E-1,-2.7566173E-3,3.2720096E-2,1.5854256E-2,4.2891778E-2],"split_indices":[54,122,129,107,127,24,109,14,129,133,13,125,13,64,132,12,64,109,134,57,134,103,134,132,130,55,108,133,129,71,54,112,130,16,73,5,90,107,80,10,17,10,132,18,25,108,133,45,112,45,50,132,14,62,127,128,135,18,19,134,49,107,134,0,0,0,0,0,0,0,0,0,0,0,0,0,0,0,0,0,0,0,0,0,0,0,0,0,0,0,0,0,0,0,0,0,0,0,0,0,0,0,0,0,0,0,0,0,0,0,0,0,0,0,0,0,0,0,0,0,0,0,0,0,0,0,0],"split_type":[0,0,0,0,0,0,0,0,0,0,0,0,0,0,0,0,0,0,0,0,0,0,0,0,0,0,0,0,0,0,0,0,0,0,0,0,0,0,0,0,0,0,0,0,0,0,0,0,0,0,0,0,0,0,0,0,0,0,0,0,0,0,0,0,0,0,0,0,0,0,0,0,0,0,0,0,0,0,0,0,0,0,0,0,0,0,0,0,0,0,0,0,0,0,0,0,0,0,0,0,0,0,0,0,0,0,0,0,0,0,0,0,0,0,0,0,0,0,0,0,0,0,0,0,0,0,0],"sum_hessian":[2.4919269E5,7.203012E4,1.7716258E5,2.2761906E4,4.9268215E4,9.427087E4,8.28917E4,1.3692547E4,9.06936E3,2.6060758E4,2.3207455E4,1.8960842E4,7.531002E4,4.8276098E4,3.461561E4,2.4992458E3,1.1193302E4,8.0313467E3,1.0380132E3,2.5463271E4,5.974865E2,1.084718E3,2.2122738E4,9.8130205E3,9.147821E3,1.2876873E3,7.4022336E4,2.0350395E4,2.7925703E4,1.5691858E4,1.8923752E4,1.8066407E3,6.92605E2,1.3003462E3,9.892955E3,5.2890635E3,2.7422834E3,8.99648E2,1.3836516E2,9.987184E3,1.5476088E4,3.5508875E2,2.4239777E2,1.009443E3,7.527502E1,2.0598562E4,1.5241741E3,3.6123328E3,6.2006875E3,3.5385234E3,5.6092974E3,1.2081525E3,7.953475E1,6.1295E4,1.2727339E4,1.9622201E4,7.281932E2,2.7154168E4,7.7153375E2,1.4411509E4,1.280349E3,7.3091787E3,1.1614573E4,6.5567055E1,1.7410737E3,3.805846E2,3.120204E2,2.5190947E1,1.2751553E3,8.0785684E3,1.8143868E3,1.11166E3,4.1774033E3,2.3381787E3,4.0410458E2,8.427414E2,5.6906597E1,7.007553E1,6.828963E1,2.199649E3,7.7875347E3,6.317867E3,9.158221E3,2.8263968E2,7.2449066E1,2.2133493E2,2.1062838E1,6.3773506E1,9.456695E2,5.902844E1,1.624658E1,1.2637357E4,7.961206E3,1.4132742E3,1.10899956E2,3.4106672E3,2.0166554E2,5.463184E3,7.375035E2,2.9117827E3,6.2674084E2,5.237408E3,3.718892E2,8.53834E2,3.5431848E2,4.4583492E1,3.495126E1,2.9148355E4,3.2146645E4,4.424631E3,8.302708E3,1.2586065E4,7.0361353E3,2.7949118E2,4.4870203E2,9.710474E3,1.7443695E4,4.6101285E2,3.1052094E2,1.3694381E4,7.17128E2,1.1712842E3,1.0906483E2,6.422597E3,8.8658154E2,9.728112E3,1.8864617E3],"tree_param":{"num_deleted":"0","num_feature":"136","num_nodes":"127","size_leaf_vector":"1"}},{"base_weights":[-1.0857404E-10,-3.5486978E-2,2.1776654E-2,4.805101E-2,-4.7611628E-2,-4.5539057E-3,3.592502E-2,-3.1858046E-2,7.0663646E-2,-7.842591E-2,-1.2838097E-2,1.2365687E-1,-9.609466E-3,6.906584E-2,2.0661626E-2,2.744004E-2,-9.609968E-2,5.0693642E-2,1.461166E-1,-1.823768E-1,-6.241569E-2,-5.0650187E-2,1.47384405E-2,1.8051355E-1,3.8424373E-2,-5.2111905E-2,5.3969733E-3,1.7201416E-1,6.023959E-2,1.2263327E-2,7.986614E-2,-1.2977369E-2,2.3110066E-1,-1.3457564E-1,-1.4996895E-2,3.9897613E-2,1.9857842E-1,1.7089698E-1,3.4190793E-2,-1.9924307E-1,1.4865834E-1,-6.868362E-2,7.894861E-2,-1.1395421E-1,-2.0081256E-2,8.118522E-3,1.2830341E-1,1.6179772E-1,2.9792595E-1,-1.2346784E-1,1.1416344E-1,-6.554663E-2,3.944169E-2,-4.71183E-3,6.793982E-2,8.739559E-2,3.83729E-1,5.0617997E-2,1.3947593E-1,5.3557586E-3,6.817457E-2,5.0502896E-2,1.1190748E-1,-1.2870205E-2,6.597282E-2,-1.5502357E-1,7.766777E-2,-2.490675E-2,-7.112047E-2,1.05127014E-1,-1.3692169E-2,1.7566796E-2,-2.4493923E-2,3.2916293E-2,1.0266331E-1,7.44296E-2,3.9428037E-2,-1.1267262E-1,1.5427062E-2,-6.6486165E-2,-2.7667452E-2,1.0439829E-1,2.0260686E-2,-3.0552309E-2,-1.1401726E-2,5.0263E-2,9.857381E-3,-3.9320342E-2,3.0676214E-2,-2.2344802E-2,1.848119E-3,-5.1922956E-3,1.0238419E-2,3.1271238E-2,9.522461E-2,1.349718E-2,5.5152718E-2,-6.2057763E-2,9.620729E-2,-2.478029E-2,-2.011117E-1,9.160698E-3,6.717917E-2,-2.322933E-2,1.0859042E-2,6.60358E-4,3.8346313E-2,-1.0626551E-2,6.5411036E-3,1.6293509E-2,4.846091E-2,-3.3895846E-2,3.3137336E-2,5.872803E-2,1.4268437E-1,1.7051924E-2,-2.082951E-2,4.6849515E-2,-2.1082582E-2,-2.298363E-3,1.3039808E-2,2.7129553E-2,-1.9507983E-3,1.8295476E-2,-1.6677957E-2,7.679357E-2,2.9300554E-2],"categories":[],"categories_nodes":[],"categories_segments":[],"categories_sizes":[],"default_left":[0,0,0,0,0,0,0,0,0,0,0,0,0,0,0,0,0,0,0,0,0,0,0,0,0,0,0,0,0,0,0,0,0,0,0,0,0,0,0,0,0,0,0,0,0,0,0,0,0,0,0,0,0,0,0,0,0,0,0,0,0,0,0,0,0,0,0,0,0,0,0,0,0,0,0,0,0,0,0,0,0,0,0,0,0,0,0,0,0,0,0,0,0,0,0,0,0,0,0,0,0,0,0,0,0,0,0,0,0,0,0,0,0,0,0,0,0,0,0,0,0,0,0,0,0,0,0],"id":11,"left_children":[1,3,5,7,9,11,13,15,17,19,21,23,25,27,29,31,33,35,37,39,41,43,45,47,49,51,53,55,57,59,61,63,65,67,69,71,73,75,77,79,81,83,85,87,89,91,93,95,97,99,101,103,105,107,109,111,113,115,117,119,121,123,125,-1,-1,-1,-1,-1,-1,-1,-1,-1,-1,-1,-1,-1,-1,-1,-1,-1,-1,-1,-1,-1,-1,-1,-1,-1,-1,-1,-1,-1,-1,-1,-1,-1,-1,-1,-1,-1,-1,-1,-1,-1,-1,-1,-1,-1,-1,-1,-1,-1,-1,-1,-1,-1,-1,-1,-1,-1,-1,-1,-1,-1,-1,-1,-1],"loss_changes":[1.9159215E2,9.549782E1,5.7236786E1,2.1595695E1,8.82206E1,3.4809742E1,5.0552338E1,1.0046043E1,1.4027966E1,7.2636566E1,4.0336193E1,9.865921E0,3.2953327E1,2.8624619E1,3.4022186E1,1.1294605E1,3.9476385E0,1.1753792E1,5.3993874E0,3.2553955E1,3.3522522E1,3.1567493E1,1.6816284E1,2.6366959E0,1.0025592E1,1.6585232E1,2.4142176E1,4.453797E1,2.2122467E1,2.3144325E1,7.9919586E0,7.9925437E0,4.8560658E0,4.5155563E0,4.588994E0,1.5577654E1,6.356142E0,4.8286285E0,2.5226588E0,1.3254608E1,4.5525026E0,3.68407E1,6.5543165E0,1.9669426E1,1.5707708E1,1.39800415E1,5.5743027E0,2.710949E0,1.9830494E0,5.7717385E0,5.104137E0,1.4219021E1,5.6798844E0,2.6768873E1,6.768406E0,8.232747E0,1.2172188E1,1.9338257E1,1.1011433E1,2.6460777E1,1.09531765E1,4.9382915E0,8.31213E0,0E0,0E0,0E0,0E0,0E0,0E0,0E0,0E0,0E0,0E0,0E0,0E0,0E0,0E0,0E0,0E0,0E0,0E0,0E0,0E0,0E0,0E0,0E0,0E0,0E0,0E0,0E0,0E0,0E0,0E0,0E0,0E0,0E0,0E0,0E0,0E0,0E0,0E0,0E0,0E0,0E0,0E0,0E0,0E0,0E0,0E0,0E0,0E0,0E0,0E0,0E0,0E0,0E0,0E0,0E0,0E0,0E0,0E0,0E0,0E0,0E0,0E0,0E0,0E0],"parents":[2147483647,0,0,1,1,2,2,3,3,4,4,5,5,6,6,7,7,8,8,9,9,10,10,11,11,12,12,13,13,14,14,15,15,16,16,17,17,18,18,19,19,20,20,21,21,22,22,23,23,24,24,25,25,26,26,27,27,28,28,29,29,30,30,31,31,32,32,33,33,34,34,35,35,36,36,37,37,38,38,39,39,40,40,41,41,42,42,43,43,44,44,45,45,46,46,47,47,48,48,49,49,50,50,51,51,52,52,53,53,54,54,55,55,56,56,57,57,58,58,59,59,60,60,61,61,62,62],"right_children":[2,4,6,8,10,12,14,16,18,20,22,24,26,28,30,32,34,36,38,40,42,44,46,48,50,52,54,56,58,60,62,64,66,68,70,72,74,76,78,80,82,84,86,88,90,92,94,96,98,100,102,104,106,108,110,112,114,116,118,120,122,124,126,-1,-1,-1,-1,-1,-1,-1,-1,-1,-1,-1,-1,-1,-1,-1,-1,-1,-1,-1,-1,-1,-1,-1,-1,-1,-1,-1,-1,-1,-1,-1,-1,-1,-1,-1,-1,-1,-1,-1,-1,-1,-1,-1,-1,-1,-1,-1,-1,-1,-1,-1,-1,-1,-1,-1,-1,-1,-1,-1,-1,-1,-1,-1,-1],"split_conditions":[4E0,1.1E1,1E0,2.5921E4,-1.0050442E1,4E0,7E0,5E0,1E1,5.747E-3,2.448E-3,1.3E1,2.10526E-1,2E0,2.5141872E1,1E0,6E0,1.388826E1,-7.525246E0,1E0,1E0,-3.601867E0,5.0288197E1,2.2874786E1,2.26E2,5.9886E4,1.48E1,6.4055E4,2.14286E-1,6E0,8.557459E0,3.261413E0,2.89E2,2.432803E0,2E0,3E0,6.1965E4,2.8E1,1.4E1,1.8182E-2,-2.046685E1,1.266402E1,-1.6910198E1,1E0,1E0,2E0,3.052293E1,3E0,1.0204E-2,1.46789E-1,1.3992969E2,2E0,5.4795E-2,2E0,2.4772114E1,1.3403399E1,1.4E1,6.4055E4,3.6E1,1.4E1,-7.516634E0,6.66667E-1,3E0,-1.2870205E-2,6.597282E-2,-1.5502357E-1,7.766777E-2,-2.490675E-2,-7.112047E-2,1.05127014E-1,-1.3692169E-2,1.7566796E-2,-2.4493923E-2,3.2916293E-2,1.0266331E-1,7.44296E-2,3.9428037E-2,-1.1267262E-1,1.5427062E-2,-6.6486165E-2,-2.7667452E-2,1.0439829E-1,2.0260686E-2,-3.0552309E-2,-1.1401726E-2,5.0263E-2,9.857381E-3,-3.9320342E-2,3.0676214E-2,-2.2344802E-2,1.848119E-3,-5.1922956E-3,1.0238419E-2,3.1271238E-2,9.522461E-2,1.349718E-2,5.5152718E-2,-6.2057763E-2,9.620729E-2,-2.478029E-2,-2.011117E-1,9.160698E-3,6.717917E-2,-2.322933E-2,1.0859042E-2,6.60358E-4,3.8346313E-2,-1.0626551E-2,6.5411036E-3,1.6293509E-2,4.846091E-2,-3.3895846E-2,3.3137336E-2,5.872803E-2,1.4268437E-1,1.7051924E-2,-2.082951E-2,4.6849515E-2,-2.1082582E-2,-2.298363E-3,1.3039808E-2,2.7129553E-2,-1.9507983E-3,1.8295476E-2,-1.6677957E-2,7.679357E-2,2.9300554E-2],"split_indices":[29,10,128,130,122,13,13,13,10,64,92,132,47,132,18,127,127,72,117,133,133,113,135,107,10,129,135,130,48,134,83,94,129,70,125,12,130,126,126,63,119,107,120,133,128,128,18,131,60,50,74,3,64,127,107,70,29,130,126,128,117,42,132,0,0,0,0,0,0,0,0,0,0,0,0,0,0,0,0,0,0,0,0,0,0,0,0,0,0,0,0,0,0,0,0,0,0,0,0,0,0,0,0,0,0,0,0,0,0,0,0,0,0,0,0,0,0,0,0,0,0,0,0,0,0,0,0],"split_type":[0,0,0,0,0,0,0,0,0,0,0,0,0,0,0,0,0,0,0,0,0,0,0,0,0,0,0,0,0,0,0,0,0,0,0,0,0,0,0,0,0,0,0,0,0,0,0,0,0,0,0,0,0,0,0,0,0,0,0,0,0,0,0,0,0,0,0,0,0,0,0,0,0,0,0,0,0,0,0,0,0,0,0,0,0,0,0,0,0,0,0,0,0,0,0,0,0,0,0,0,0,0,0,0,0,0,0,0,0,0,0,0,0,0,0,0,0,0,0,0,0,0,0,0,0,0,0],"sum_hessian":[2.4792142E5,9.428123E4,1.5364019E5,1.1949188E4,8.233204E4,5.3701207E4,9.9938984E4,2.6354758E3,9.313713E3,4.3650363E4,3.868167E4,2.0363064E3,5.1664902E4,3.151284E4,6.842615E4,1.3707664E3,1.2647096E3,7.365872E3,1.9478408E3,5.824266E3,3.7826098E4,1.6312982E4,2.236869E4,1.2208123E3,8.1549414E2,1.3480859E4,3.8184043E4,2.4869426E3,2.9025896E4,5.992662E4,8.499525E3,1.1445594E3,2.2620691E2,8.573263E2,4.0738327E2,6.86591E3,4.999621E2,1.5943295E3,3.5351138E2,5.5422847E3,2.8198166E2,3.6220633E4,1.6054652E3,5.311296E3,1.1001687E4,2.113761E4,1.2310801E3,1.0550177E3,1.6579448E2,2.5971765E2,5.557765E2,1.1756043E4,1.7248169E3,3.2871883E4,5.3121597E3,1.7778009E3,7.091418E2,2.5884414E4,3.1414814E3,5.3338055E4,6.5885664E3,4.436456E3,4.0630696E3,1.0149638E3,1.2959558E2,7.47484E0,2.1873207E2,5.716167E2,2.857096E2,3.0712055E1,3.766712E2,5.9526323E3,9.1327765E2,3.0996683E2,1.8999525E2,5.3757477E2,1.0567546E3,1.3427736E1,3.4008365E2,4.582926E3,9.593588E2,8.061168E1,2.0136996E2,1.7405746E4,1.8814887E4,5.4850433E2,1.0569609E3,4.92209E3,3.892057E2,3.5794048E3,7.4222817E3,1.0688842E4,1.0448768E4,1.0934779E3,1.3760222E2,1.6798172E2,8.87036E2,6.8054605E0,1.5898901E2,2.4273087E2,1.6986782E1,3.161732E2,2.3960329E2,1.052668E4,1.2293634E3,1.2142092E3,5.106076E2,1.5231069E4,1.7640814E4,4.6383696E3,6.737896E2,1.8308867E2,1.5947123E3,2.3386269E2,4.7527908E2,2.4609518E4,1.2748969E3,2.9101843E3,2.3129715E2,3.975881E4,1.3579247E4,5.075594E3,1.5129723E3,4.0379429E3,3.9851318E2,3.6392004E2,3.6991497E3],"tree_param":{"num_deleted":"0","num_feature":"136","num_nodes":"127","size_leaf_vector":"1"}},{"base_weights":[2.1917601E-10,-3.3107504E-2,1.9945651E-2,-4.504076E-2,3.0642608E-2,1.6378772E-2,1.1640801E-1,-1.7109184E-1,-3.8702607E-2,1.9317964E-2,1.1712484E-1,5.9125507E-3,4.5917872E-2,7.169746E-2,1.7382428E-1,-1.4501174E-1,-3.5757014E-1,-1.3378532E-2,-6.536064E-2,2.1975178E-2,-3.9752293E-1,1.5246715E-1,2.203816E-2,2.8275192E-2,-1.05824685E-2,1.19423745E-2,7.724688E-2,7.8189015E-2,-9.337799E-2,1.1238726E-1,2.1098426E-1,-1.5136257E-1,3.454171E-1,-3.9569297E-1,-4.9279112E-2,1.8858993E-3,-7.3373936E-2,-1.548237E-1,-2.9571062E-2,6.525023E-2,-8.7005657E-4,-5.917113E-1,-5.647465E-2,3.0039865E-1,1.3374874E-1,2.1806116E-1,-6.4433482E-3,4.597224E-2,-1.6376805E-2,-2.8541232E-2,1.8318899E-2,5.167935E-2,-1.8068157E-2,3.4078303E-1,7.2834976E-2,3.0971393E-2,1.0413484E-1,-6.0239315E-2,-5.1764303E-1,4.0083338E-2,1.6054626E-1,2.4181879E-1,1.3229124E-1,2.5370203E-2,-4.8875693E-2,-6.684265E-2,1.2477562E-1,-1.754616E-1,-1.03299536E-1,-8.2221806E-2,1.03866525E-1,1.2906551E-2,-5.463438E-3,-3.5897348E-2,8.859714E-3,-5.3948093E-2,-2.272939E-2,-1.2714683E-2,2.014691E-2,5.2569903E-2,1.2877486E-2,-1.3186731E-2,6.246382E-3,-1.9991343E-1,-2.7099403E-2,1.2095819E-2,-2.0702937E-1,1.287956E-1,5.368429E-2,3.196953E-2,7.163515E-2,1.1304533E-1,-4.3954034E-3,-7.323884E-3,9.304212E-2,1.0590847E-2,4.268891E-2,-1.0379145E-2,2.4980588E-2,-7.350265E-3,-5.1563397E-2,1.0955179E-3,1.47030745E-2,8.0632254E-2,1.3616151E-2,-1.2853273E-2,8.805167E-3,8.243942E-2,1.6411987E-1,6.116061E-2,1.9256616E-2,-3.4849346E-2,1.5588308E-2,2.3832202E-2,4.855993E-2,5.072723E-2,-3.4279786E-2,1.6895712E-3,-2.2244908E-1,3.7997954E-2,-3.2060784E-3,5.3083774E-2,-1.947622E-2,6.546738E-2,1.08403966E-1,-4.888178E-2,4.5979872E-2],"categories":[],"categories_nodes":[],"categories_segments":[],"categories_sizes":[],"default_left":[0,0,0,0,0,0,0,0,0,0,0,0,0,0,0,0,0,0,0,0,0,0,0,0,0,0,0,0,0,0,0,0,0,0,0,0,0,0,0,0,0,0,0,0,0,0,0,0,0,0,0,0,0,0,0,0,0,0,0,0,0,0,0,0,0,0,0,0,0,0,0,0,0,0,0,0,0,0,0,0,0,0,0,0,0,0,0,0,0,0,0,0,0,0,0,0,0,0,0,0,0,0,0,0,0,0,0,0,0,0,0,0,0,0,0,0,0,0,0,0,0,0,0,0,0,0,0],"id":12,"left_children":[1,3,5,7,9,11,13,15,17,19,21,23,25,27,29,31,33,35,37,39,41,43,45,47,49,51,53,55,57,59,61,63,65,67,69,71,73,75,77,79,81,83,85,87,89,91,93,95,97,99,101,103,105,107,109,111,113,115,117,119,121,123,125,-1,-1,-1,-1,-1,-1,-1,-1,-1,-1,-1,-1,-1,-1,-1,-1,-1,-1,-1,-1,-1,-1,-1,-1,-1,-1,-1,-1,-1,-1,-1,-1,-1,-1,-1,-1,-1,-1,-1,-1,-1,-1,-1,-1,-1,-1,-1,-1,-1,-1,-1,-1,-1,-1,-1,-1,-1,-1,-1,-1,-1,-1,-1,-1],"loss_changes":[1.6294797E2,7.057643E1,5.2981E1,6.2424835E1,1.4324197E1,4.591013E1,1.408313E1,1.8141304E1,5.022843E1,1.4336614E1,5.6878757E0,4.0447063E1,4.135206E1,3.3171206E0,5.4626846E0,1.027932E1,5.366932E0,3.494495E1,1.1605272E2,1.2708451E1,5.3965616E0,3.3781033E0,2.5699527E0,3.678216E1,3.2753757E1,2.22286E1,2.3475822E1,3.6382046E0,1.6183107E0,3.1548042E0,3.598709E0,8.853806E0,1.7865067E0,3.7602806E0,4.6805563E0,2.514934E1,3.686517E1,2.0459335E1,3.208692E1,1.0897871E1,7.8646836E0,1.8916531E0,1.9200103E0,2.081625E0,3.1084862E0,2.1628704E0,2.2983093E0,3.4254143E1,2.3990976E1,2.2535856E1,1.0886754E1,1.0943377E1,1.2478088E1,4.3759575E0,2.2510696E1,3.26578E0,2.7212982E0,1.3816369E0,9.8440266E-1,1.6025454E0,2.0251122E0,2.9495697E0,2.6471658E0,0E0,0E0,0E0,0E0,0E0,0E0,0E0,0E0,0E0,0E0,0E0,0E0,0E0,0E0,0E0,0E0,0E0,0E0,0E0,0E0,0E0,0E0,0E0,0E0,0E0,0E0,0E0,0E0,0E0,0E0,0E0,0E0,0E0,0E0,0E0,0E0,0E0,0E0,0E0,0E0,0E0,0E0,0E0,0E0,0E0,0E0,0E0,0E0,0E0,0E0,0E0,0E0,0E0,0E0,0E0,0E0,0E0,0E0,0E0,0E0,0E0,0E0,0E0,0E0],"parents":[2147483647,0,0,1,1,2,2,3,3,4,4,5,5,6,6,7,7,8,8,9,9,10,10,11,11,12,12,13,13,14,14,15,15,16,16,17,17,18,18,19,19,20,20,21,21,22,22,23,23,24,24,25,25,26,26,27,27,28,28,29,29,30,30,31,31,32,32,33,33,34,34,35,35,36,36,37,37,38,38,39,39,40,40,41,41,42,42,43,43,44,44,45,45,46,46,47,47,48,48,49,49,50,50,51,51,52,52,53,53,54,54,55,55,56,56,57,57,58,58,59,59,60,60,61,61,62,62],"right_children":[2,4,6,8,10,12,14,16,18,20,22,24,26,28,30,32,34,36,38,40,42,44,46,48,50,52,54,56,58,60,62,64,66,68,70,72,74,76,78,80,82,84,86,88,90,92,94,96,98,100,102,104,106,108,110,112,114,116,118,120,122,124,126,-1,-1,-1,-1,-1,-1,-1,-1,-1,-1,-1,-1,-1,-1,-1,-1,-1,-1,-1,-1,-1,-1,-1,-1,-1,-1,-1,-1,-1,-1,-1,-1,-1,-1,-1,-1,-1,-1,-1,-1,-1,-1,-1,-1,-1,-1,-1,-1,-1,-1,-1,-1,-1,-1,-1,-1,-1,-1,-1,-1,-1,-1,-1,-1],"split_conditions":[9.804E-3,2.0591328E1,6E0,-2.8620268E1,4E0,9.4E1,1.1E1,2.312E3,8.75E-1,1.47E2,5.6E-1,6E0,1.1908115E1,1.25E2,9.4E1,1E0,6E0,7.86E2,2E0,5E0,9.43534E-1,-2.7479742E1,-3.873224E1,4E0,3E0,7E0,2E0,1E0,-7.507232E0,1.3063552E1,2E1,1E1,3E0,4.337521E0,7.39435E-1,3.2E1,1E1,3.076375E1,1.11111E-1,3.3E1,7.14286E-1,1.59091E-1,1.8284521E1,4.16E2,1.167E2,3E0,-7.824801E0,1.8E1,1.5288662E1,6.4055E4,4.8E1,2E0,5.5805E4,-5.971601E0,5E0,6.7E1,1.1939097E1,3.3333E-2,-3.283092E0,5E0,7.4E1,1.184E3,1.065E3,2.5370203E-2,-4.8875693E-2,-6.684265E-2,1.2477562E-1,-1.754616E-1,-1.03299536E-1,-8.2221806E-2,1.03866525E-1,1.2906551E-2,-5.463438E-3,-3.5897348E-2,8.859714E-3,-5.3948093E-2,-2.272939E-2,-1.2714683E-2,2.014691E-2,5.2569903E-2,1.2877486E-2,-1.3186731E-2,6.246382E-3,-1.9991343E-1,-2.7099403E-2,1.2095819E-2,-2.0702937E-1,1.287956E-1,5.368429E-2,3.196953E-2,7.163515E-2,1.1304533E-1,-4.3954034E-3,-7.323884E-3,9.304212E-2,1.0590847E-2,4.268891E-2,-1.0379145E-2,2.4980588E-2,-7.350265E-3,-5.1563397E-2,1.0955179E-3,1.47030745E-2,8.0632254E-2,1.3616151E-2,